{"learner":{"attributes":{},"feature_names":[],"feature_types":[],"gradient_booster":{"model":{"cats":{"enc":[],"feature_segments":[],"sorted_idx":[]},"gbtree_model_param":{"num_parallel_tree":"1","num_trees":"100"},"iteration_indptr":[0,1,2,3,4,5,6,7,8,9,10,11,12,13,14,15,16,17,18,19,20,21,22,23,24,25,26,27,28,29,30,31,32,33,34,35,36,37,38,39,40,41,42,43,44,45,46,47,48,49,50,51,52,53,54,55,56,57,58,59,60,61,62,63,64,65,66,67,68,69,70,71,72,73,74,75,76,77,78,79,80,81,82,83,84,85,86,87,88,89,90,91,92,93,94,95,96,97,98,99,100],"tree_info":[0,0,0,0,0,0,0,0,0,0,0,0,0,0,0,0,0,0,0,0,0,0,0,0,0,0,0,0,0,0,0,0,0,0,0,0,0,0,0,0,0,0,0,0,0,0,0,0,0,0,0,0,0,0,0,0,0,0,0,0,0,0,0,0,0,0,0,0,0,0,0,0,0,0,0,0,0,0,0,0,0,0,0,0,0,0,0,0,0,0,0,0,0,0,0,0,0,0,0,0],"trees":[{"base_weights":[1.4507752E-7,-2.0751731E0,8.2130694E-1,-4.3778047E-1,-2.8433904E-1,-3.5887438E-1,1.1705612E0,8.947207E-2,-2.0453766E-1,-1.8287216E-1,7.817512E-2,1.2761931E-1,-1.9564465E-2],"categories":[],"categories_nodes":[],"categories_segments":[],"categories_sizes":[],"default_left":[0,0,0,0,0,0,0,0,0,0,0,0,0],"id":0,"left_children":[1,3,5,7,-1,9,11,-1,-1,-1,-1,-1,-1],"loss_changes":[5.4921715E1,1.0248821E1,9.9361725E0,1.0612608E1,0E0,1.1551568E1,2.854517E0,0E0,0E0,0E0,0E0,0E0,0E0],"parents":[2147483647,0,0,1,1,2,2,3,3,5,5,6,6],"right_children":[2,4,6,8,-1,10,12,-1,-1,-1,-1,-1,-1],"split_conditions":[-6.2893206E-1,-6.0821825E-1,-8.8342965E-1,-6.1404962E-2,-2.8433904E-1,-6.630301E-1,2.813497E-1,8.947207E-2,-2.0453766E-1,-1.8287216E-1,7.817512E-2,1.2761931E-1,-1.9564465E-2],"split_indices":[21,1,5,16,0,0,0,0,0,0,0,0,0],"split_type":[0,0,0,0,0,0,0,0,0,0,0,0,0],"sum_hessian":[3.0224361E1,8.137328E0,2.2087034E1,3.0999346E0,5.0373936E0,5.0373936E0,1.704964E1,1.9374591E0,1.1624755E0,1.9374591E0,3.0999346E0,1.5887165E1,1.1624755E0],"tree_param":{"num_deleted":"0","num_feature":"22","num_nodes":"13","size_leaf_vector":"1"}},{"base_weights":[-6.678264E-3,-1.7719337E0,7.738152E-1,-4.1594902E-1,-2.3446307E0,-3.3459023E-1,1.1232189E0,8.61413E-2,-1.8386061E-1,-6.661349E-2,-2.553296E-1,-1.6142295E-1,7.448855E-1,1.2312175E-1,-1.8416297E-2,2.3019377E-2,8.655482E-2],"categories":[],"categories_nodes":[],"categories_segments":[],"categories_sizes":[],"default_left":[0,0,0,0,0,0,0,0,0,0,0,0,0,0,0,0,0],"id":1,"left_children":[1,3,5,7,9,11,13,-1,-1,-1,-1,-1,15,-1,-1,-1,-1],"loss_changes":[4.4025917E1,6.6317616E0,8.959356E0,9.078792E0,6.357498E-1,9.604546E0,2.638506E0,0E0,0E0,0E0,0E0,0E0,4.815364E-2,0E0,0E0,0E0,0E0],"parents":[2147483647,0,0,1,1,2,2,3,3,4,4,5,5,6,6,12,12],"right_children":[2,4,6,8,10,12,14,-1,-1,-1,-1,-1,16,-1,-1,-1,-1],"split_conditions":[-6.2893206E-1,-6.0821825E-1,-8.8342965E-1,-6.1404962E-2,-6.818658E-1,-6.630301E-1,2.813497E-1,8.61413E-2,-1.8386061E-1,-6.661349E-2,-2.553296E-1,-1.6142295E-1,-4.4082853E-1,1.2312175E-1,-1.8416297E-2,2.3019377E-2,8.655482E-2],"split_indices":[21,1,5,16,2,0,0,0,0,0,0,0,0,0,0,0,0],"split_type":[0,0,0,0,0,0,0,0,0,0,0,0,0,0,0,0,0],"sum_hessian":[2.9959272E1,8.795674E0,2.1163599E1,3.1243637E0,5.6713104E0,5.082594E0,1.6081005E1,1.8541136E0,1.27025E0,1.0906366E0,4.5806737E0,2.0990002E0,2.983594E0,1.4907778E1,1.1732271E0,1.1188477E0,1.8647462E0],"tree_param":{"num_deleted":"0","num_feature":"22","num_nodes":"17","size_leaf_vector":"1"}},{"base_weights":[-1.3734222E-2,-1.4054284E0,8.3238995E-1,-2.9984942E-1,-2.061511E0,-1.340122E-1,1.1358242E0,-1.562388E-1,9.230923E-2,-2.2435899E-1,-5.7581615E-2,-1.3124663E-1,7.185317E-1,1.8057749E-2,1.1952484E-1,8.586381E-2,1.7398866E-2],"categories":[],"categories_nodes":[],"categories_segments":[],"categories_sizes":[],"default_left":[0,0,0,0,0,0,0,0,0,0,0,0,0,0,0,0,0],"id":2,"left_children":[1,3,5,7,9,11,13,-1,-1,-1,-1,-1,15,-1,-1,-1,-1],"loss_changes":[3.7000637E1,7.996849E0,5.8854427E0,1.0078606E1,6.783943E-1,6.535487E0,6.347828E-1,0E0,0E0,0E0,0E0,0E0,1.4632297E-1,0E0,0E0,0E0,0E0],"parents":[2147483647,0,0,1,1,2,2,3,3,4,4,5,5,6,6,12,12],"right_children":[2,4,6,8,10,12,14,-1,-1,-1,-1,-1,16,-1,-1,-1,-1],"split_conditions":[-4.0227407E-1,-5.861192E-1,-8.2380867E-1,-4.4082853E-1,-8.644613E-1,-4.2932057E-1,-3.567633E-1,-1.562388E-1,9.230923E-2,-2.2435899E-1,-5.7581615E-2,-1.3124663E-1,-8.680154E-1,1.8057749E-2,1.1952484E-1,8.586381E-2,1.7398866E-2],"split_indices":[18,1,8,0,12,20,18,0,0,0,0,0,5,0,0,0,0],"split_type":[0,0,0,0,0,0,0,0,0,0,0,0,0,0,0,0,0],"sum_hessian":[2.9428343E1,1.087699E1,1.8551352E1,4.593468E0,6.2835217E0,4.566366E0,1.3984986E1,2.1235726E0,2.4698956E0,5.1430845E0,1.1404369E0,1.6903539E0,2.876012E0,1.0555611E0,1.2929425E1,1.828699E0,1.0473132E0],"tree_param":{"num_deleted":"0","num_feature":"22","num_nodes":"17","size_leaf_vector":"1"}},{"base_weights":[-1.7063504E-2,-1.2644373E0,7.9355496E-1,-2.791648E-1,-1.8265163E0,-1.2432485E-1,1.0984929E0,-1.4022425E-1,8.908877E-2,-2.0018835E-1,-4.794454E-2,-1.19320035E-1,6.903523E-1,1.4250618E-2,1.1609947E-1,8.3216146E-2,1.5585144E-2],"categories":[],"categories_nodes":[],"categories_segments":[],"categories_sizes":[],"default_left":[0,0,0,0,0,0,0,0,0,0,0,0,0,0,0,0,0],"id":3,"left_children":[1,3,5,7,9,11,13,-1,-1,-1,-1,-1,15,-1,-1,-1,-1],"loss_changes":[3.1126673E1,6.202181E0,5.362585E0,8.585688E0,8.2068634E-1,5.660469E0,6.7804337E-1,0E0,0E0,0E0,0E0,0E0,1.5723681E-1,0E0,0E0,0E0,0E0],"parents":[2147483647,0,0,1,1,2,2,3,3,4,4,5,5,6,6,12,12],"right_children":[2,4,6,8,10,12,14,-1,-1,-1,-1,-1,16,-1,-1,-1,-1],"split_conditions":[-4.0227407E-1,-5.861192E-1,-8.2380867E-1,-4.4082853E-1,-2.2440958E-1,-4.2932057E-1,-4.25315E-1,-1.4022425E-1,8.908877E-2,-2.0018835E-1,-4.794454E-2,-1.19320035E-1,-6.6703204E-3,1.4250618E-2,1.1609947E-1,8.3216146E-2,1.5585144E-2],"split_indices":[18,1,8,0,19,20,19,0,0,0,0,0,20,0,0,0,0],"split_type":[0,0,0,0,0,0,0,0,0,0,0,0,0,0,0,0,0],"sum_hessian":[2.8791273E1,1.1120022E1,1.7671251E1,4.58304E0,6.5369816E0,4.5544376E0,1.3116814E1,2.2372074E0,2.3458328E0,5.3538885E0,1.183093E0,1.7689302E0,2.7855074E0,1.0062282E0,1.2110585E1,1.7613161E0,1.0241914E0],"tree_param":{"num_deleted":"0","num_feature":"22","num_nodes":"17","size_leaf_vector":"1"}},{"base_weights":[-1.9515602E-2,-1.1517714E0,7.5804687E-1,-2.5992242E-1,-1.6472135E0,-1.1391596E-1,1.0742774E0,-1.2697533E-1,8.6086184E-2,-1.7984465E-1,-4.5092102E-2,-7.910158E-1,5.8015007E-1,1.7266093E-2,1.1349692E-1,-1.0090057E-1,-2.0053353E-2,7.003351E-2,1.7149428E-2],"categories":[],"categories_nodes":[],"categories_segments":[],"categories_sizes":[],"default_left":[0,0,0,0,0,0,0,0,0,0,0,0,0,0,0,0,0,0,0],"id":4,"left_children":[1,3,5,7,9,11,13,-1,-1,-1,-1,15,17,-1,-1,-1,-1,-1,-1],"loss_changes":[2.6424337E1,4.9683075E0,5.0331287E0,7.373451E0,5.7561684E-1,3.1112967E0,5.2445126E-1,0E0,0E0,0E0,0E0,2.198596E-1,4.5114756E-2,0E0,0E0,0E0,0E0,0E0,0E0],"parents":[2147483647,0,0,1,1,2,2,3,3,4,4,5,5,6,6,11,11,12,12],"right_children":[2,4,6,8,10,12,14,-1,-1,-1,-1,16,18,-1,-1,-1,-1,-1,-1],"split_conditions":[-4.0227407E-1,-5.861192E-1,-1.23860076E-1,-4.4082853E-1,-2.2440958E-1,-8.2380867E-1,-4.7989348E-1,-1.2697533E-1,8.6086184E-2,-1.7984465E-1,-4.5092102E-2,-4.61423E-1,-7.566709E-1,1.7266093E-2,1.1349692E-1,-1.0090057E-1,-2.0053353E-2,7.003351E-2,1.7149428E-2],"split_indices":[18,1,19,0,19,8,21,0,0,0,0,20,3,0,0,0,0,0,0],"split_type":[0,0,0,0,0,0,0,0,0,0,0,0,0,0,0,0,0,0,0],"sum_hessian":[2.8022322E1,1.1213055E1,1.6809267E1,4.548998E0,6.6640573E0,4.6439567E0,1.216531E1,2.323027E0,2.225971E0,5.4692903E0,1.1947669E0,2.2800035E0,2.3639534E0,1.0097458E0,1.1155564E1,1.14757E0,1.1324334E0,1.2751739E0,1.0887794E0],"tree_param":{"num_deleted":"0","num_feature":"22","num_nodes":"19","size_leaf_vector":"1"}},{"base_weights":[-2.1968579E-2,-1.0600629E0,7.2337043E-1,-2.4197663E-1,-1.5071026E0,-1.2636547E-1,1.0352931E0,-1.1581266E-1,8.327015E-2,-1.6586387E-1,-3.825125E-2,-1.0508163E-1,6.3914335E-1,1.8504312E-2,1.10156514E-1,7.638125E-2,1.9052228E-2],"categories":[],"categories_nodes":[],"categories_segments":[],"categories_sizes":[],"default_left":[0,0,0,0,0,0,0,0,0,0,0,0,0,0,0,0,0],"id":5,"left_children":[1,3,5,7,9,11,13,-1,-1,-1,-1,-1,15,-1,-1,-1,-1],"loss_changes":[2.2569984E1,4.0906153E0,4.635873E0,6.375528E0,6.754341E-1,4.5320816E0,5.02862E-1,0E0,0E0,0E0,0E0,0E0,5.615151E-2,0E0,0E0,0E0,0E0],"parents":[2147483647,0,0,1,1,2,2,3,3,4,4,5,5,6,6,12,12],"right_children":[2,4,6,8,10,12,14,-1,-1,-1,-1,-1,16,-1,-1,-1,-1],"split_conditions":[-4.0227407E-1,-5.861192E-1,-8.2380867E-1,-4.4082853E-1,-8.644613E-1,-4.2932057E-1,-3.5584554E-1,-1.1581266E-1,8.327015E-2,-1.6586387E-1,-3.825125E-2,-1.0508163E-1,-2.4113367E-1,1.8504312E-2,1.10156514E-1,7.638125E-2,1.9052228E-2],"split_indices":[18,1,8,0,12,20,18,0,0,0,0,0,18,0,0,0,0],"split_type":[0,0,0,0,0,0,0,0,0,0,0,0,0,0,0,0,0],"sum_hessian":[2.7179216E1,1.1182367E1,1.599685E1,4.4959784E0,6.686389E0,4.455128E0,1.1541721E1,2.3850784E0,2.1109E0,5.473909E0,1.2124801E0,1.8492349E0,2.6058931E0,1.1087662E0,1.0432956E1,1.4894152E0,1.116478E0],"tree_param":{"num_deleted":"0","num_feature":"22","num_nodes":"17","size_leaf_vector":"1"}},{"base_weights":[-2.2926545E-2,-9.8293465E-1,6.930752E-1,-3.770784E-1,-1.5454642E-1,-1.2249732E-1,1.0182391E0,7.363214E-2,-1.1781418E0,-9.6570484E-2,3.4327763E-1,2.0827046E-2,1.0817023E-1,-1.4676169E-1,-1.2521746E-2,-5.6868076E-2,8.360735E-2],"categories":[],"categories_nodes":[],"categories_segments":[],"categories_sizes":[],"default_left":[0,0,0,0,0,0,0,0,0,0,0,0,0,0,0,0,0],"id":6,"left_children":[1,3,5,7,-1,9,11,-1,13,-1,15,-1,-1,-1,-1,-1,-1],"loss_changes":[1.9423025E1,3.5280237E0,4.4220223E0,7.2267337E0,0E0,2.4961598E0,3.7575626E-1,0E0,1.1973181E0,0E0,2.4025996E0,0E0,0E0,0E0,0E0,0E0,0E0],"parents":[2147483647,0,0,1,1,2,2,3,3,5,5,6,6,8,8,10,10],"right_children":[2,4,6,8,-1,10,12,-1,14,-1,16,-1,-1,-1,-1,-1,-1],"split_conditions":[-4.0227407E-1,-4.7402757E-1,-1.23860076E-1,1.9330215E-1,-1.5454642E-1,-1.3138331E-1,-9.662603E-1,7.363214E-2,-2.859652E-1,-9.6570484E-2,-9.7364485E-1,2.0827046E-2,1.0817023E-1,-1.4676169E-1,-1.2521746E-2,-5.6868076E-2,8.360735E-2],"split_indices":[18,1,19,17,0,17,14,0,20,0,14,0,0,0,0,0,0],"split_type":[0,0,0,0,0,0,0,0,0,0,0,0,0,0,0,0,0],"sum_hessian":[2.6266024E1,1.106174E1,1.5204284E1,6.129964E0,4.9317756E0,4.5116043E0,1.0692679E1,2.5987606E0,3.5312033E0,1.2234408E0,3.2881637E0,1.0880373E0,9.604642E0,2.460816E0,1.0703875E0,1.0994866E0,2.188677E0],"tree_param":{"num_deleted":"0","num_feature":"22","num_nodes":"17","size_leaf_vector":"1"}},{"base_weights":[-2.6671566E-2,-6.845964E-1,9.27003E-1,-8.149881E-2,-1.4723001E-1,-5.431797E-3,1.0580219E-1,-9.335247E-1,8.535602E-1,4.9529027E-4,-1.4129454E-1,9.495285E-2,2.2894798E-2],"categories":[],"categories_nodes":[],"categories_segments":[],"categories_sizes":[],"default_left":[0,0,0,0,0,0,0,0,0,0,0,0,0],"id":7,"left_children":[1,3,5,7,-1,-1,-1,9,11,-1,-1,-1,-1],"loss_changes":[1.714715E1,7.5515456E0,1.4934282E0,8.926741E0,0E0,0E0,0E0,2.624205E0,1.0555601E-1,0E0,0E0,0E0,0E0],"parents":[2147483647,0,0,1,1,2,2,3,3,7,7,8,8],"right_children":[2,4,6,8,-1,-1,-1,10,12,-1,-1,-1,-1],"split_conditions":[-4.182359E-1,1.6767576E-1,-8.412943E-1,-4.4082853E-1,-1.4723001E-1,-5.431797E-3,1.0580219E-1,-8.926401E-1,-8.477842E-1,4.9529027E-4,-1.4129454E-1,9.495285E-2,2.2894798E-2],"split_indices":[21,0,10,0,0,0,0,1,5,0,0,0,0],"split_type":[0,0,0,0,0,0,0,0,0,0,0,0,0],"sum_hessian":[2.531704E1,1.5148488E1,1.01685505E1,9.204566E0,5.943922E0,1.2666755E0,8.9018755E0,4.816977E0,4.3875895E0,1.9633468E0,2.85363E0,3.3523328E0,1.0352566E0],"tree_param":{"num_deleted":"0","num_feature":"22","num_nodes":"13","size_leaf_vector":"1"}},{"base_weights":[-2.6235474E-2,-6.394668E-1,8.9834344E-1,-7.61017E-2,-1.3716082E-1,-5.1216944E-3,1.0341485E-1,-8.632675E-1,8.2407326E-1,-1.1693592E0,2.9278493E-2,2.143008E-2,9.214937E-2,-5.8850865E-3,-1.4745294E-1],"categories":[],"categories_nodes":[],"categories_segments":[],"categories_sizes":[],"default_left":[0,0,0,0,0,0,0,0,0,0,0,0,0,0,0],"id":8,"left_children":[1,3,5,7,-1,-1,-1,9,11,13,-1,-1,-1,-1,-1],"loss_changes":[1.4944493E1,6.421715E0,1.4099035E0,7.797635E0,0E0,0E0,0E0,2.4030762E0,1.10058784E-1,1.5414929E0,0E0,0E0,0E0,0E0,0E0],"parents":[2147483647,0,0,1,1,2,2,3,3,7,7,8,8,9,9],"right_children":[2,4,6,8,-1,-1,-1,10,12,14,-1,-1,-1,-1,-1],"split_conditions":[-4.182359E-1,1.6767576E-1,-8.412943E-1,-4.4082853E-1,-1.3716082E-1,-5.1216944E-3,1.0341485E-1,-8.921002E-1,1.2192148E-1,-8.9580685E-1,2.9278493E-2,2.143008E-2,9.214937E-2,-5.8850865E-3,-1.4745294E-1],"split_indices":[21,0,10,0,0,0,0,5,15,3,0,0,0,0,0],"split_type":[0,0,0,0,0,0,0,0,0,0,0,0,0,0,0],"sum_hessian":[2.4344831E1,1.4822265E1,9.522568E0,9.000523E0,5.821742E0,1.269434E0,8.253134E0,4.823538E0,4.176985E0,3.8046563E0,1.0188817E0,1.0161937E0,3.160791E0,1.0772847E0,2.7273717E0],"tree_param":{"num_deleted":"0","num_feature":"22","num_nodes":"15","size_leaf_vector":"1"}},{"base_weights":[-2.5385778E-2,-5.995467E-1,8.709159E-1,-7.02928E-2,-1.2860914E0,-4.82939E-3,1.0117432E-1,-8.0181843E-1,7.9603505E-1,-4.1449234E-2,-1.3886154E-1,-1.0875359E0,2.7973041E-2,8.9446254E-2,2.02437E-2,-5.5760946E-3,-1.3722812E-1],"categories":[],"categories_nodes":[],"categories_segments":[],"categories_sizes":[],"default_left":[0,0,0,0,0,0,0,0,0,0,0,0,0,0,0,0,0],"id":9,"left_children":[1,3,5,7,9,-1,-1,11,13,-1,-1,15,-1,-1,-1,-1,-1],"loss_changes":[1.3056177E1,5.5191116E0,1.3327136E0,6.833391E0,1.9796371E-2,0E0,0E0,2.0959845E0,1.09727144E-1,0E0,0E0,1.3311019E0,0E0,0E0,0E0,0E0,0E0],"parents":[2147483647,0,0,1,1,2,2,3,3,4,4,7,7,8,8,11,11],"right_children":[2,4,6,8,10,-1,-1,12,14,-1,-1,16,-1,-1,-1,-1,-1],"split_conditions":[-4.182359E-1,1.6767576E-1,-8.412943E-1,-4.4082853E-1,-6.378701E-1,-4.82939E-3,1.0117432E-1,-8.921002E-1,-8.549523E-2,-4.1449234E-2,-1.3886154E-1,-8.9580685E-1,2.7973041E-2,8.9446254E-2,2.02437E-2,-5.5760946E-3,-1.3722812E-1],"split_indices":[21,0,10,0,16,0,0,5,20,0,0,3,0,0,0,0,0],"split_type":[0,0,0,0,0,0,0,0,0,0,0,0,0,0,0,0,0],"sum_hessian":[2.3355814E1,1.4438047E1,8.917766E0,8.775469E0,5.662579E0,1.2720298E0,7.6457357E0,4.798276E0,3.9771926E0,1.1267226E0,4.5358562E0,3.7912023E0,1.0070739E0,2.9767532E0,1.0004394E0,1.0786259E0,2.7125764E0],"tree_param":{"num_deleted":"0","num_feature":"22","num_nodes":"17","size_leaf_vector":"1"}},{"base_weights":[-2.6589716E-2,-5.6694686E-1,8.444904E-1,-7.852985E-2,-1.2575524E-1,-3.7051588E-3,9.9546455E-2,7.9113364E-1,-6.600343E-1,1.9976197E-2,9.1006614E-2,-1.0422265E-1,2.5888413E-2],"categories":[],"categories_nodes":[],"categories_segments":[],"categories_sizes":[],"default_left":[0,0,0,0,0,0,0,0,0,0,0,0,0],"id":10,"left_children":[1,3,5,7,-1,-1,-1,9,11,-1,-1,-1,-1],"loss_changes":[1.1484956E1,4.9706593E0,1.2817554E0,5.51351E0,0E0,0E0,0E0,1.2836218E-1,2.5386074E0,0E0,0E0,0E0,0E0],"parents":[2147483647,0,0,1,1,2,2,3,3,7,7,8,8],"right_children":[2,4,6,8,-1,-1,-1,10,12,-1,-1,-1,-1],"split_conditions":[-4.182359E-1,-4.7402757E-1,-1.631335E-1,2.6596972E-1,-1.2575524E-1,-3.7051588E-3,9.9546455E-2,-4.2915307E-2,-2.859652E-1,1.9976197E-2,9.1006614E-2,-1.0422265E-1,2.5888413E-2],"split_indices":[21,1,19,17,0,0,0,17,20,0,0,0,0],"split_type":[0,0,0,0,0,0,0,0,0,0,0,0,0],"sum_hessian":[2.2382847E1,1.4029236E1,8.353611E0,8.869893E0,5.1593432E0,1.3317963E0,7.021815E0,3.4098413E0,5.460051E0,1.0196128E0,2.3902285E0,3.7614276E0,1.6986235E0],"tree_param":{"num_deleted":"0","num_feature":"22","num_nodes":"13","size_leaf_vector":"1"}},{"base_weights":[-2.3812532E-2,-7.433433E-1,5.718521E-1,-2.580814E-1,-1.1925159E-1,-1.2931733E-1,9.175248E-1,6.309978E-1,-8.82051E-1,-8.2020804E-2,3.1569934E-1,2.2319244E-2,9.8206304E-2,1.6299302E-2,7.721781E-2,-1.9171547E-2,-1.0724225E-1,-4.5283742E-2,7.71998E-2],"categories":[],"categories_nodes":[],"categories_segments":[],"categories_sizes":[],"default_left":[0,0,0,0,0,0,0,0,0,0,0,0,0,0,0,0,0,0,0],"id":11,"left_children":[1,3,5,7,-1,9,11,13,15,-1,17,-1,-1,-1,-1,-1,-1,-1,-1],"loss_changes":[1.0074457E1,2.0095425E0,3.2409906E0,4.099613E0,0E0,1.836277E0,1.7299604E-1,8.668184E-2,3.424058E-1,0E0,1.6970649E0,0E0,0E0,0E0,0E0,0E0,0E0,0E0,0E0],"parents":[2147483647,0,0,1,1,2,2,3,3,5,5,6,6,7,7,8,8,10,10],"right_children":[2,4,6,8,-1,10,12,14,16,-1,18,-1,-1,-1,-1,-1,-1,-1,-1],"split_conditions":[-4.0227407E-1,-4.7402757E-1,-1.23860076E-1,1.9330215E-1,-1.1925159E-1,-1.3138331E-1,-2.4968208E-1,-9.238921E-1,-3.0271757E-1,-8.2020804E-2,-4.7983065E-1,2.2319244E-2,9.8206304E-2,1.6299302E-2,7.721781E-2,-1.9171547E-2,-1.0724225E-1,-4.5283742E-2,7.71998E-2],"split_indices":[18,1,19,17,0,17,16,5,16,0,20,0,0,0,0,0,0,0,0],"split_type":[0,0,0,0,0,0,0,0,0,0,0,0,0,0,0,0,0,0,0],"sum_hessian":[2.1513758E1,9.631501E0,1.18822565E1,5.386637E0,4.2448635E0,4.130257E0,7.7519994E0,2.2167625E0,3.169875E0,1.2878181E0,2.8424394E0,1.0384254E0,6.713574E0,1.0130528E0,1.2037097E0,1.1190336E0,2.0508413E0,1.0617447E0,1.7806946E0],"tree_param":{"num_deleted":"0","num_feature":"22","num_nodes":"19","size_leaf_vector":"1"}},{"base_weights":[-2.5312286E-2,-5.0928503E-1,8.0000687E-1,-4.5254547E-2,-1.1212097E0,-8.44223E-3,9.5938586E-2,-6.949707E-1,7.554487E-1,-3.3243835E-2,-1.2149276E-1,2.3428323E-3,-1.0654863E-1,2.3275806E-2,8.398699E-2],"categories":[],"categories_nodes":[],"categories_segments":[],"categories_sizes":[],"default_left":[0,0,0,0,0,0,0,0,0,0,0,0,0,0,0],"id":12,"left_children":[1,3,5,7,9,-1,-1,11,13,-1,-1,-1,-1,-1,-1],"loss_changes":[9.0501995E0,3.995694E0,1.2632504E0,5.2833815E0,4.731369E-2,0E0,0E0,1.507643E0,6.4525604E-3,0E0,0E0,0E0,0E0,0E0,0E0],"parents":[2147483647,0,0,1,1,2,2,3,3,4,4,7,7,8,8],"right_children":[2,4,6,8,10,-1,-1,12,14,-1,-1,-1,-1,-1,-1],"split_conditions":[-4.182359E-1,1.6767576E-1,-8.412943E-1,-4.4082853E-1,-6.378701E-1,-8.44223E-3,9.5938586E-2,-8.926401E-1,1.8979111E-1,-3.3243835E-2,-1.2149276E-1,2.3428323E-3,-1.0654863E-1,2.3275806E-2,8.398699E-2],"split_indices":[21,0,10,0,16,0,0,1,15,0,0,0,0,0,0],"split_type":[0,0,0,0,0,0,0,0,0,0,0,0,0,0,0],"sum_hessian":[2.0637646E1,1.3250429E1,7.3872175E0,8.146663E0,5.103766E0,1.1997641E0,6.1874533E0,4.5702586E0,3.576404E0,1.0249076E0,4.0788584E0,1.8738288E0,2.69643E0,1.0197519E0,2.5566523E0],"tree_param":{"num_deleted":"0","num_feature":"22","num_nodes":"15","size_leaf_vector":"1"}},{"base_weights":[-2.616175E-2,-4.8406073E-1,7.753011E-1,-4.1059807E-2,-1.0711474E0,-7.966545E-3,9.401372E-2,-6.522886E-1,7.309232E-1,-3.1736497E-2,-1.1625762E-1,2.1911494E-3,-1.0057583E-1,2.2109224E-2,8.163525E-2],"categories":[],"categories_nodes":[],"categories_segments":[],"categories_sizes":[],"default_left":[0,0,0,0,0,0,0,0,0,0,0,0,0,0,0],"id":13,"left_children":[1,3,5,7,9,-1,-1,11,13,-1,-1,-1,-1,-1,-1],"loss_changes":[7.992018E0,3.5513558E0,1.1925611E0,4.6851215E0,3.8015842E-2,0E0,0E0,1.334172E0,1.1701822E-2,0E0,0E0,0E0,0E0,0E0,0E0],"parents":[2147483647,0,0,1,1,2,2,3,3,4,4,7,7,8,8],"right_children":[2,4,6,8,10,-1,-1,12,14,-1,-1,-1,-1,-1,-1],"split_conditions":[-4.182359E-1,1.6767576E-1,-8.412943E-1,-4.4082853E-1,-6.378701E-1,-7.966545E-3,9.401372E-2,-8.926401E-1,-3.0837718E-1,-3.1736497E-2,-1.1625762E-1,2.1911494E-3,-1.0057583E-1,2.2109224E-2,8.163525E-2],"split_indices":[21,0,10,0,16,0,0,1,19,0,0,0,0,0,0],"split_type":[0,0,0,0,0,0,0,0,0,0,0,0,0,0,0],"sum_hessian":[1.975464E1,1.2823965E1,6.930675E0,7.9186716E0,4.9052935E0,1.2037582E0,5.726917E0,4.506016E0,3.4126558E0,1.0142776E0,3.891016E0,1.8724868E0,2.6335292E0,1.0047073E0,2.4079483E0],"tree_param":{"num_deleted":"0","num_feature":"22","num_nodes":"15","size_leaf_vector":"1"}},{"base_weights":[-2.6800128E-2,-4.6070373E-1,7.511324E-1,-4.633261E-2,-1.0498561E-1,-7.5759212E-3,9.260892E-2,7.119961E-1,-5.4887354E-1,1.965944E-2,8.291126E-2,-8.6667174E-1,2.3506884E-2,-2.8230473E-2,-1.0480932E-1],"categories":[],"categories_nodes":[],"categories_segments":[],"categories_sizes":[],"default_left":[0,0,0,0,0,0,0,0,0,0,0,0,0,0,0],"id":14,"left_children":[1,3,5,7,-1,-1,-1,9,11,-1,-1,13,-1,-1,-1],"loss_changes":[7.0663548E0,3.2227783E0,1.1564536E0,3.7875974E0,0E0,0E0,0E0,7.771802E-2,1.6799731E0,0E0,0E0,1.73733E-1,0E0,0E0,0E0],"parents":[2147483647,0,0,1,1,2,2,3,3,7,7,8,8,11,11],"right_children":[2,4,6,8,-1,-1,-1,10,12,-1,-1,14,-1,-1,-1],"split_conditions":[-4.182359E-1,-4.7402757E-1,-1.631335E-1,2.6596972E-1,-1.0498561E-1,-7.5759212E-3,9.260892E-2,-2.9203838E-1,-2.859652E-1,1.965944E-2,8.291126E-2,-1.9735086E-1,2.3506884E-2,-2.8230473E-2,-1.0480932E-1],"split_indices":[21,1,19,17,0,0,0,19,20,0,0,19,0,0,0],"split_type":[0,0,0,0,0,0,0,0,0,0,0,0,0,0,0],"sum_hessian":[1.89092E1,1.2400449E1,6.5087523E0,7.913356E0,4.4870925E0,1.235664E0,5.2730885E0,2.9878824E0,4.9254737E0,1.0492051E0,1.9386773E0,3.429626E0,1.4958477E0,1.4180601E0,2.011566E0],"tree_param":{"num_deleted":"0","num_feature":"22","num_nodes":"15","size_leaf_vector":"1"}},{"base_weights":[-2.5930794E-2,-7.15982E-1,4.2878884E-1,4.5294384E-3,-9.0661013E-1,-2.1425156E-1,7.805698E-1,-1.05589025E-1,-3.3551347E-2,-8.573227E-2,5.5544198E-2,9.53232E-2,-2.1905366E-2],"categories":[],"categories_nodes":[],"categories_segments":[],"categories_sizes":[],"default_left":[0,0,0,0,0,0,0,0,0,0,0,0,0],"id":15,"left_children":[1,3,5,-1,7,9,11,-1,-1,-1,-1,-1,-1],"loss_changes":[6.3186197E0,1.1998067E0,2.921117E0,0E0,1.941905E-1,2.995339E0,1.6041718E0,0E0,0E0,0E0,0E0,0E0,0E0],"parents":[2147483647,0,0,1,1,2,2,4,4,5,5,6,6],"right_children":[2,4,6,-1,8,10,12,-1,-1,-1,-1,-1,-1],"split_conditions":[-6.2893206E-1,-6.103514E-1,-8.8342965E-1,4.5294384E-3,4.19735E-1,-6.630301E-1,2.1655451E-1,-1.05589025E-1,-3.3551347E-2,-8.573227E-2,5.5544198E-2,9.53232E-2,-2.1905366E-2],"split_indices":[21,16,5,0,15,0,0,0,0,0,0,0,0],"split_type":[0,0,0,0,0,0,0,0,0,0,0,0,0],"sum_hessian":[1.81587E1,6.9846783E0,1.1174024E1,1.5514265E0,5.4332514E0,4.0895166E0,7.0845075E0,3.6343737E0,1.798878E0,2.165998E0,1.9235184E0,6.0806265E0,1.0038807E0],"tree_param":{"num_deleted":"0","num_feature":"22","num_nodes":"13","size_leaf_vector":"1"}},{"base_weights":[-2.8401313E-2,-5.89615E-1,4.877793E-1,-1.0313179E-1,-1.0559412E-1,-2.3409845E-1,8.358467E-1,5.709325E-2,-6.4244556E-1,-8.65425E-2,5.174432E-2,9.198289E-2,1.8101448E-2,-9.234025E-3,-8.4026024E-2],"categories":[],"categories_nodes":[],"categories_segments":[],"categories_sizes":[],"default_left":[0,0,0,0,0,0,0,0,0,0,0,0,0,0,0],"id":16,"left_children":[1,3,5,7,-1,9,11,-1,13,-1,-1,-1,-1,-1,-1],"loss_changes":[5.6351004E0,2.0001512E0,2.7492013E0,2.4237535E0,0E0,2.3871045E0,2.2261E-1,0E0,3.1566513E-1,0E0,0E0,0E0,0E0,0E0,0E0],"parents":[2147483647,0,0,1,1,2,2,3,3,5,5,6,6,8,8],"right_children":[2,4,6,8,-1,10,12,-1,14,-1,-1,-1,-1,-1,-1],"split_conditions":[-5.530955E-1,-4.7402757E-1,-8.8342965E-1,1.9330215E-1,-1.0559412E-1,-4.2932057E-1,4.6608295E-2,5.709325E-2,-3.0271757E-1,-8.65425E-2,5.174432E-2,9.198289E-2,1.8101448E-2,-9.234025E-3,-8.4026024E-2],"split_indices":[21,1,5,17,0,20,0,0,16,0,0,0,0,0,0],"split_type":[0,0,0,0,0,0,0,0,0,0,0,0,0,0,0],"sum_hessian":[1.7459536E1,8.2967205E0,9.162815E0,4.6582627E0,3.6384578E0,3.0873046E0,6.07551E0,2.0444136E0,2.613849E0,1.5954916E0,1.491813E0,5.026219E0,1.0492913E0,1.0792766E0,1.5345725E0],"tree_param":{"num_deleted":"0","num_feature":"22","num_nodes":"15","size_leaf_vector":"1"}},{"base_weights":[-3.0033285E-2,-4.1028702E-1,6.938187E-1,-1.0429654E-2,-9.487458E-2,-9.500372E-3,8.808029E-2,-5.465781E-1,6.8502754E-2,-7.684214E-1,1.6429473E-2,-2.1584721E-2,-9.993028E-2],"categories":[],"categories_nodes":[],"categories_segments":[],"categories_sizes":[],"default_left":[0,0,0,0,0,0,0,0,0,0,0,0,0],"id":17,"left_children":[1,3,5,7,-1,-1,-1,9,-1,11,-1,-1,-1],"loss_changes":[5.157836E0,2.6245112E0,1.0378532E0,3.3695204E0,0E0,0E0,0E0,9.2927027E-1,0E0,3.018973E-1,0E0,0E0,0E0],"parents":[2147483647,0,0,1,1,2,2,3,3,7,7,9,9],"right_children":[2,4,6,8,-1,-1,-1,10,-1,12,-1,-1,-1],"split_conditions":[-4.182359E-1,1.6767576E-1,-1.631335E-1,-4.4082853E-1,-9.487458E-2,-9.500372E-3,8.808029E-2,-9.593214E-1,6.8502754E-2,-9.0246516E-1,1.6429473E-2,-2.1584721E-2,-9.993028E-2],"split_indices":[21,0,19,0,0,0,0,14,0,6,0,0,0],"split_type":[0,0,0,0,0,0,0,0,0,0,0,0,0],"sum_hessian":[1.6704695E1,1.12356E1,5.4690933E0,7.0325937E0,4.203007E0,1.1422492E0,4.326844E0,4.092014E0,2.9405801E0,3.0570424E0,1.0349712E0,1.4711018E0,1.5859406E0],"tree_param":{"num_deleted":"0","num_feature":"22","num_nodes":"13","size_leaf_vector":"1"}},{"base_weights":[-3.0797152E-2,-5.0049067E-1,5.1382667E-1,-8.8274874E-2,-1.9454874E-1,9.391686E-2,-4.505393E-1,-6.2972635E-1,2.5307125E-1,-7.7048555E-2,7.279597E-3,-1.5345539E-2,-7.5311825E-2,7.574048E-2,-4.380096E-2],"categories":[],"categories_nodes":[],"categories_segments":[],"categories_sizes":[],"default_left":[0,0,0,0,0,0,0,0,0,0,0,0,0,0,0],"id":18,"left_children":[1,3,5,-1,7,-1,9,11,13,-1,-1,-1,-1,-1,-1],"loss_changes":[4.6094866E0,9.558916E-1,3.8572245E0,0E0,1.4524771E0,0E0,5.982897E-1,9.908736E-2,1.7209151E0,0E0,0E0,0E0,0E0,0E0,0E0],"parents":[2147483647,0,0,1,1,2,2,4,4,6,6,7,7,8,8],"right_children":[2,4,6,-1,8,-1,10,12,14,-1,-1,-1,-1,-1,-1],"split_conditions":[-8.8342965E-1,-4.558933E-1,-4.887045E-1,-8.8274874E-2,-2.3953275E-1,9.391686E-2,-2.526389E-1,-5.9082645E-1,-8.8246506E-1,-7.7048555E-2,7.279597E-3,-1.5345539E-2,-7.5311825E-2,7.574048E-2,-4.380096E-2],"split_indices":[5,20,1,0,19,0,19,16,3,0,0,0,0,0,0],"split_type":[0,0,0,0,0,0,0,0,0,0,0,0,0,0,0],"sum_hessian":[1.601413E1,8.642077E0,7.3720517E0,3.0037305E0,5.638347E0,5.1338506E0,2.238201E0,2.6526244E0,2.9857225E0,1.095932E0,1.1422689E0,1.0074989E0,1.6451256E0,1.6705939E0,1.3151288E0],"tree_param":{"num_deleted":"0","num_feature":"22","num_nodes":"15","size_leaf_vector":"1"}},{"base_weights":[-3.5441957E-2,-3.8729465E-1,6.569727E-1,-1.3248412E-2,-8.920647E-2,-1.0053347E-2,8.515721E-2,-5.0892943E-1,6.482335E-2,4.3231696E-3,-8.107516E-2],"categories":[],"categories_nodes":[],"categories_segments":[],"categories_sizes":[],"default_left":[0,0,0,0,0,0,0,0,0,0,0],"id":19,"left_children":[1,3,5,7,-1,-1,-1,9,-1,-1,-1],"loss_changes":[4.2439365E0,2.1570134E0,9.53614E-1,2.8260617E0,0E0,0E0,0E0,8.536658E-1,0E0,0E0,0E0],"parents":[2147483647,0,0,1,1,2,2,3,3,7,7],"right_children":[2,4,6,8,-1,-1,-1,10,-1,-1,-1],"split_conditions":[-4.182359E-1,1.6767576E-1,-1.631335E-1,-4.4082853E-1,-8.920647E-2,-1.0053347E-2,8.515721E-2,-8.926401E-1,6.482335E-2,4.3231696E-3,-8.107516E-2],"split_indices":[21,0,19,0,0,0,0,1,0,0,0],"split_type":[0,0,0,0,0,0,0,0,0,0,0],"sum_hessian":[1.5375357E1,1.048701E1,4.8883467E0,6.612926E0,3.8740842E0,1.0979193E0,3.7904272E0,3.9120533E0,2.7008724E0,1.6854368E0,2.2266166E0],"tree_param":{"num_deleted":"0","num_feature":"22","num_nodes":"11","size_leaf_vector":"1"}},{"base_weights":[-3.4562204E-2,-4.7101134E-1,4.8731953E-1,1.7722197E-2,-5.9818834E-1,9.141844E-2,-4.2297703E-1,-9.17926E-2,-2.3077795E-1,-7.26196E-2,7.268456E-3,-6.497448E-2,3.106756E-2],"categories":[],"categories_nodes":[],"categories_segments":[],"categories_sizes":[],"default_left":[0,0,0,0,0,0,0,0,0,0,0,0,0],"id":20,"left_children":[1,3,5,-1,7,-1,9,-1,11,-1,-1,-1,-1],"loss_changes":[3.8131397E0,8.5426974E-1,3.361895E0,0E0,7.063775E-1,0E0,5.228968E-1,0E0,1.3299545E0,0E0,0E0,0E0,0E0],"parents":[2147483647,0,0,1,1,2,2,4,4,6,6,8,8],"right_children":[2,4,6,-1,8,-1,10,-1,12,-1,-1,-1,-1],"split_conditions":[-8.8342965E-1,-9.5902306E-1,-4.887045E-1,1.7722197E-2,-4.2932057E-1,9.141844E-2,-2.526389E-1,-9.17926E-2,-5.2467036E-1,-7.26196E-2,7.268456E-3,-6.497448E-2,3.106756E-2],"split_indices":[5,11,1,0,20,0,19,0,18,0,0,0,0],"split_type":[0,0,0,0,0,0,0,0,0,0,0,0,0],"sum_hessian":[1.4733109E1,8.076345E0,6.656764E0,1.2600821E0,6.816263E0,4.528804E0,2.1279602E0,2.8434203E0,3.9728432E0,1.0317109E0,1.0962493E0,2.1270049E0,1.8458383E0],"tree_param":{"num_deleted":"0","num_feature":"22","num_nodes":"13","size_leaf_vector":"1"}},{"base_weights":[-3.7028298E-2,-5.056832E-1,4.2030928E-1,-6.585647E-2,-9.411589E-2,-2.7119035E-1,7.254E-1,5.2018143E-2,-5.5837977E-1,-5.9747633E-2,2.2202564E-2,1.1739285E-2,8.4725976E-2,-6.748306E-2,-1.5324934E-2],"categories":[],"categories_nodes":[],"categories_segments":[],"categories_sizes":[],"default_left":[0,0,0,0,0,0,0,0,0,0,0,0,0,0,0],"id":21,"left_children":[1,3,5,7,-1,9,11,-1,13,-1,-1,-1,-1,-1,-1],"loss_changes":[3.470024E0,1.4626513E0,1.9347073E0,1.7438962E0,0E0,6.556498E-1,3.4421563E-1,0E0,4.841709E-2,0E0,0E0,0E0,0E0,0E0,0E0],"parents":[2147483647,0,0,1,1,2,2,3,3,5,5,6,6,8,8],"right_children":[2,4,6,8,-1,10,12,-1,14,-1,-1,-1,-1,-1,-1],"split_conditions":[-5.530955E-1,-4.7402757E-1,-4.2932057E-1,1.9330215E-1,-9.411589E-2,-8.811944E-1,-3.435739E-1,5.2018143E-2,-3.9001223E-1,-5.9747633E-2,2.2202564E-2,1.1739285E-2,8.4725976E-2,-6.748306E-2,-1.5324934E-2],"split_indices":[21,1,20,17,0,3,18,0,20,0,0,0,0,0,0],"split_type":[0,0,0,0,0,0,0,0,0,0,0,0,0,0,0],"sum_hessian":[1.4198189E1,6.960121E0,7.238068E0,4.035515E0,2.9246063E0,2.2498388E0,4.9882293E0,1.8171681E0,2.2183466E0,1.2268381E0,1.0230007E0,1.1606458E0,3.8275833E0,1.205986E0,1.0123605E0],"tree_param":{"num_deleted":"0","num_feature":"22","num_nodes":"15","size_leaf_vector":"1"}},{"base_weights":[-3.8930353E-2,-3.498843E-1,6.022721E-1,-6.777693E-3,-8.2067095E-2,-1.1231544E-2,8.0833875E-2,-4.6532494E-1,6.140056E-2,3.2030945E-3,-7.3635735E-2],"categories":[],"categories_nodes":[],"categories_segments":[],"categories_sizes":[],"default_left":[0,0,0,0,0,0,0,0,0,0,0],"id":22,"left_children":[1,3,5,7,-1,-1,-1,9,-1,-1,-1],"loss_changes":[3.1261463E0,1.6871707E0,8.4807014E-1,2.2982454E0,0E0,0E0,0E0,6.4841235E-1,0E0,0E0,0E0],"parents":[2147483647,0,0,1,1,2,2,3,3,7,7],"right_children":[2,4,6,8,-1,-1,-1,10,-1,-1,-1],"split_conditions":[-4.182359E-1,1.6767576E-1,-1.631335E-1,-4.4082853E-1,-8.2067095E-2,-1.1231544E-2,8.0833875E-2,-8.926401E-1,6.140056E-2,3.2030945E-3,-7.3635735E-2],"split_indices":[21,0,19,0,0,0,0,1,0,0,0],"split_type":[0,0,0,0,0,0,0,0,0,0,0],"sum_hessian":[1.36221075E1,9.479374E0,4.1427336E0,6.0699935E0,3.4093807E0,1.0290838E0,3.1136496E0,3.6352246E0,2.434769E0,1.5932896E0,2.041935E0],"tree_param":{"num_deleted":"0","num_feature":"22","num_nodes":"11","size_leaf_vector":"1"}},{"base_weights":[-3.7692744E-2,-4.3161547E-1,4.5521042E-1,1.6913412E-2,-5.51478E-1,8.773591E-2,-3.891855E-2,-7.4596906E-1,-7.688233E-2,-8.494305E-2,-1.9133566E-2,-5.6670237E-2,4.7204595E-2],"categories":[],"categories_nodes":[],"categories_segments":[],"categories_sizes":[],"default_left":[0,0,0,0,0,0,0,0,0,0,0,0,0],"id":23,"left_children":[1,3,5,-1,7,-1,-1,9,11,-1,-1,-1,-1],"loss_changes":[2.9305742E0,6.9379747E-1,2.744537E0,0E0,6.060667E-1,0E0,0E0,1.234231E-1,1.1290188E0,0E0,0E0,0E0,0E0],"parents":[2147483647,0,0,1,1,2,2,4,4,7,7,8,8],"right_children":[2,4,6,-1,8,-1,-1,10,12,-1,-1,-1,-1],"split_conditions":[-8.8342965E-1,-9.5902306E-1,-4.887045E-1,1.6913412E-2,-2.7179444E-1,8.773591E-2,-3.891855E-2,5.0578076E-1,-7.4209034E-1,-8.494305E-2,-1.9133566E-2,-5.6670237E-2,4.7204595E-2],"split_indices":[5,11,1,0,20,0,0,17,21,0,0,0,0],"split_type":[0,0,0,0,0,0,0,0,0,0,0,0,0],"sum_hessian":[1.3081259E1,7.3397517E0,5.7415075E0,1.1524785E0,6.187273E0,3.8017945E0,1.9397129E0,3.9831605E0,2.2041128E0,2.9089985E0,1.074162E0,1.147656E0,1.0564567E0],"tree_param":{"num_deleted":"0","num_feature":"22","num_nodes":"13","size_leaf_vector":"1"}},{"base_weights":[-3.7933107E-2,-5.641457E-1,3.1693926E-1,1.1288449E-2,-9.169638E-2,-3.473907E-1,5.8800864E-1,7.950559E-3,-6.2547065E-2,-9.753868E-3,7.702949E-2],"categories":[],"categories_nodes":[],"categories_segments":[],"categories_sizes":[],"default_left":[0,0,0,0,0,0,0,0,0,0,0],"id":24,"left_children":[1,3,5,-1,-1,7,9,-1,-1,-1,-1],"loss_changes":[2.726952E0,1.5022558E0,1.7871437E0,0E0,0E0,4.2673582E-1,9.016621E-1,0E0,0E0,0E0,0E0],"parents":[2147483647,0,0,1,1,2,2,5,5,6,6],"right_children":[2,4,6,-1,-1,8,10,-1,-1,-1,-1],"split_conditions":[-2.2363068E-1,-5.7779884E-1,-9.731356E-1,1.1288449E-2,-9.169638E-2,-9.7523636E-1,-2.1273595E-1,7.950559E-3,-6.2547065E-2,-9.753868E-3,7.702949E-2],"split_indices":[19,1,14,0,0,14,17,0,0,0,0],"split_type":[0,0,0,0,0,0,0,0,0,0,0],"sum_hessian":[1.2645578E1,4.85571E0,7.7898684E0,1.8965085E0,2.9592016E0,2.1758337E0,5.6140347E0,1.1399393E0,1.0358945E0,1.276868E0,4.337167E0],"tree_param":{"num_deleted":"0","num_feature":"22","num_nodes":"11","size_leaf_vector":"1"}},{"base_weights":[-4.042123E-2,-4.0518826E-1,4.3089896E-1,-7.35796E-2,-1.2006927E-1,8.460864E-2,-3.5034478E-2,1.6333272E-1,-5.9555467E-2,-2.6211485E-2,6.26365E-2],"categories":[],"categories_nodes":[],"categories_segments":[],"categories_sizes":[],"default_left":[0,0,0,0,0,0,0,0,0,0,0],"id":25,"left_children":[1,3,5,-1,7,-1,-1,9,-1,-1,-1],"loss_changes":[2.445094E0,6.620017E-1,2.322509E0,0E0,8.342598E-1,0E0,0E0,9.938275E-1,0E0,0E0,0E0],"parents":[2147483647,0,0,1,1,2,2,4,4,7,7],"right_children":[2,4,6,-1,8,-1,-1,10,-1,-1,-1],"split_conditions":[-8.8342965E-1,-4.558933E-1,-4.887045E-1,-7.35796E-2,2.857858E-1,8.460864E-2,-3.5034478E-2,-4.4082853E-1,-5.9555467E-2,-2.6211485E-2,6.26365E-2],"split_indices":[5,20,1,0,0,0,0,0,0,0,0],"split_type":[0,0,0,0,0,0,0,0,0,0,0],"sum_hessian":[1.220656E1,6.960195E0,5.246365E0,2.4910512E0,4.4691434E0,3.3715663E0,1.8747988E0,3.2114975E0,1.257646E0,1.8998117E0,1.3116859E0],"tree_param":{"num_deleted":"0","num_feature":"22","num_nodes":"11","size_leaf_vector":"1"}},{"base_weights":[-4.0647455E-2,-5.388496E-1,2.945903E-1,9.295059E-3,-8.750587E-2,-1.8304957E-1,6.640443E-1,3.2544497E-2,-4.6746302E-1,1.8808728E-2,7.731547E-2,-6.587017E-2,-6.1718677E-3],"categories":[],"categories_nodes":[],"categories_segments":[],"categories_sizes":[],"default_left":[0,0,0,0,0,0,0,0,0,0,0,0,0],"id":26,"left_children":[1,3,5,-1,-1,7,9,-1,11,-1,-1,-1,-1],"loss_changes":[2.2937155E0,1.2486188E0,1.5840693E0,0E0,0E0,7.8826773E-1,1.08486414E-1,0E0,2.1007282E-1,0E0,0E0,0E0,0E0],"parents":[2147483647,0,0,1,1,2,2,5,5,6,6,8,8],"right_children":[2,4,6,-1,-1,8,10,-1,12,-1,-1,-1,-1],"split_conditions":[-2.2363068E-1,-5.7779884E-1,-2.859652E-1,9.295059E-3,-8.750587E-2,-8.9326555E-1,-5.530955E-1,3.2544497E-2,-8.139445E-1,1.8808728E-2,7.731547E-2,-6.587017E-2,-6.1718677E-3],"split_indices":[19,1,20,0,0,3,21,0,10,0,0,0,0],"split_type":[0,0,0,0,0,0,0,0,0,0,0,0,0],"sum_hessian":[1.1783048E1,4.4952383E0,7.28781E0,1.8125843E0,2.682654E0,3.3985784E0,3.8892314E0,1.1673107E0,2.2312677E0,1.233282E0,2.6559494E0,1.092773E0,1.1384947E0],"tree_param":{"num_deleted":"0","num_feature":"22","num_nodes":"13","size_leaf_vector":"1"}},{"base_weights":[-3.9552458E-2,-4.319798E-1,3.5052893E-1,-7.243155E-1,8.519106E-2,-2.6459673E-2,6.605063E-1,-1.7303757E-2,-8.4577E-2,6.367442E-2,-5.7561558E-2,1.1886991E-2,7.933805E-2],"categories":[],"categories_nodes":[],"categories_segments":[],"categories_sizes":[],"default_left":[0,0,0,0,0,0,0,0,0,0,0,0,0],"id":27,"left_children":[1,3,5,7,9,-1,11,-1,-1,-1,-1,-1,-1],"loss_changes":[2.048147E0,1.0632694E0,1.4648534E0,1.4407063E-1,1.5645727E0,0E0,2.5005293E-1,0E0,0E0,0E0,0E0,0E0,0E0],"parents":[2147483647,0,0,1,1,2,2,3,3,4,4,6,6],"right_children":[2,4,6,8,10,-1,12,-1,-1,-1,-1,-1,-1],"split_conditions":[-5.530955E-1,3.9624482E-1,-4.2932057E-1,-1.1001654E-1,1.4526233E-1,-2.6459673E-2,-1.7929633E-1,-1.7303757E-2,-8.4577E-2,6.367442E-2,-5.7561558E-2,1.1886991E-2,7.933805E-2],"split_indices":[21,15,20,16,0,0,16,0,0,0,0,0,0],"split_type":[0,0,0,0,0,0,0,0,0,0,0,0,0],"sum_hessian":[1.1390534E1,5.624649E0,5.7658854E0,3.337539E0,2.2871099E0,1.9810491E0,3.784836E0,1.0403112E0,2.2972279E0,1.2664557E0,1.0206542E0,1.118813E0,2.666023E0],"tree_param":{"num_deleted":"0","num_feature":"22","num_nodes":"13","size_leaf_vector":"1"}},{"base_weights":[-3.9017543E-2,-3.7611288E-1,4.0779594E-1,-6.319017E-1,-6.777517E-2,8.126973E-2,-3.2446664E-2,-8.659965E-2,-1.5127576E-2,2.4364316E-1,-5.4089107E-2,-1.7100777E-2,5.7444442E-2],"categories":[],"categories_nodes":[],"categories_segments":[],"categories_sizes":[],"default_left":[0,0,0,0,0,0,0,0,0,0,0,0,0],"id":28,"left_children":[1,3,5,7,9,-1,-1,-1,-1,11,-1,-1,-1],"loss_changes":[1.9619111E0,5.379809E-1,1.936863E0,3.0834842E-1,7.887957E-1,0E0,0E0,0E0,0E0,5.616674E-1,0E0,0E0,0E0],"parents":[2147483647,0,0,1,1,2,2,3,3,4,4,9,9],"right_children":[2,4,6,8,10,-1,-1,-1,-1,12,-1,-1,-1],"split_conditions":[-8.8342965E-1,-4.2932057E-1,-4.887045E-1,-6.630301E-1,2.857858E-1,8.126973E-2,-3.2446664E-2,-8.659965E-2,-1.5127576E-2,-4.4082853E-1,-5.4089107E-2,-1.7100777E-2,5.7444442E-2],"split_indices":[5,20,1,0,0,0,0,0,0,0,0,0,0],"split_type":[0,0,0,0,0,0,0,0,0,0,0,0,0],"sum_hessian":[1.1007362E1,6.3641825E0,4.6431804E0,2.9049394E0,3.459243E0,2.9191852E0,1.7239951E0,1.4142848E0,1.4906546E0,2.378603E0,1.0806398E0,1.2698847E0,1.1087184E0],"tree_param":{"num_deleted":"0","num_feature":"22","num_nodes":"13","size_leaf_vector":"1"}},{"base_weights":[-4.1348055E-2,-5.067536E-1,2.730841E-1,7.99864E-3,-8.251211E-2,-3.2025497E-2,5.32889E-1,-9.589535E-3,7.135714E-2],"categories":[],"categories_nodes":[],"categories_segments":[],"categories_sizes":[],"default_left":[0,0,0,0,0,0,0,0,0],"id":29,"left_children":[1,3,5,-1,-1,-1,7,-1,-1],"loss_changes":[1.8444334E0,1.0094826E0,1.3433633E0,0E0,0E0,0E0,7.121602E-1,0E0,0E0],"parents":[2147483647,0,0,1,1,2,2,6,6],"right_children":[2,4,6,-1,-1,-1,8,-1,-1],"split_conditions":[-2.2363068E-1,-5.7779884E-1,-9.731356E-1,7.99864E-3,-8.251211E-2,-3.2025497E-2,-2.1273595E-1,-9.589535E-3,7.135714E-2],"split_indices":[19,1,14,0,0,0,17,0,0],"split_type":[0,0,0,0,0,0,0,0,0],"sum_hessian":[1.0658226E1,4.0508013E0,6.6074247E0,1.6882241E0,2.362577E0,1.9412801E0,4.666145E0,1.1462821E0,3.519863E0],"tree_param":{"num_deleted":"0","num_feature":"22","num_nodes":"9","size_leaf_vector":"1"}},{"base_weights":[-4.2197406E-2,-3.5713556E-1,3.872095E-1,-6.077316E-1,-5.0409865E-2,7.825191E-2,-2.9343814E-2,-8.3301365E-2,-1.3739312E-2,-4.020805E-2,3.2887623E-2],"categories":[],"categories_nodes":[],"categories_segments":[],"categories_sizes":[],"default_left":[0,0,0,0,0,0,0,0,0,0,0],"id":30,"left_children":[1,3,5,7,9,-1,-1,-1,-1,-1,-1],"loss_changes":[1.6715599E0,5.120904E-1,1.6494505E0,2.877196E-1,7.011578E-1,0E0,0E0,0E0,0E0,0E0,0E0],"parents":[2147483647,0,0,1,1,2,2,3,3,4,4],"right_children":[2,4,6,8,10,-1,-1,-1,-1,-1,-1],"split_conditions":[-8.8342965E-1,-4.2932057E-1,-4.887045E-1,-6.630301E-1,-5.2467036E-1,7.825191E-2,-2.9343814E-2,-8.3301365E-2,-1.3739312E-2,-4.020805E-2,3.2887623E-2],"split_indices":[5,20,1,0,18,0,0,0,0,0,0],"split_type":[0,0,0,0,0,0,0,0,0,0,0],"sum_hessian":[1.0337711E1,6.0608397E0,4.2768717E0,2.7955298E0,3.2653098E0,2.6108577E0,1.6660141E0,1.3688065E0,1.4267232E0,1.6631521E0,1.6021577E0],"tree_param":{"num_deleted":"0","num_feature":"22","num_nodes":"11","size_leaf_vector":"1"}},{"base_weights":[-4.3515556E-2,-4.0281752E-1,3.212201E-1,-6.8381315E-1,1.0166105E-1,-2.3638815E-2,6.1345965E-1,-2.2020299E-2,-7.8830235E-2,-3.521721E-2,5.014163E-2,8.642067E-3,7.516103E-2],"categories":[],"categories_nodes":[],"categories_segments":[],"categories_sizes":[],"default_left":[0,0,0,0,0,0,0,0,0,0,0,0,0],"id":31,"left_children":[1,3,5,7,9,-1,11,-1,-1,-1,-1,-1,-1],"loss_changes":[1.5793912E0,9.2252004E-1,1.1304134E0,1.9899368E-2,7.250669E-1,0E0,2.4418473E-1,0E0,0E0,0E0,0E0,0E0,0E0],"parents":[2147483647,0,0,1,1,2,2,3,3,4,4,6,6],"right_children":[2,4,6,8,10,-1,12,-1,-1,-1,-1,-1,-1],"split_conditions":[-5.530955E-1,3.9624482E-1,-4.2932057E-1,-8.181818E-1,-6.71986E-1,-2.3638815E-2,-1.7929633E-1,-2.2020299E-2,-7.8830235E-2,-3.521721E-2,5.014163E-2,8.642067E-3,7.516103E-2],"split_indices":[21,15,20,4,18,0,16,0,0,0,0,0,0],"split_type":[0,0,0,0,0,0,0,0,0,0,0,0,0],"sum_hessian":[1.00644455E1,5.017391E0,5.047054E0,2.9941554E0,2.023236E0,1.8012638E0,3.24579E0,1.122249E0,1.8719064E0,1.0032731E0,1.0199628E0,1.0117109E0,2.2340791E0],"tree_param":{"num_deleted":"0","num_feature":"22","num_nodes":"13","size_leaf_vector":"1"}},{"base_weights":[-4.2289E-2,-4.748245E-1,2.5354916E-1,8.137128E-3,-7.8538425E-2,-1.6092631E-1,5.9899133E-1,3.0550096E-2,-4.310618E-2,1.739572E-2,6.9738165E-2],"categories":[],"categories_nodes":[],"categories_segments":[],"categories_sizes":[],"default_left":[0,0,0,0,0,0,0,0,0,0,0],"id":32,"left_children":[1,3,5,-1,-1,7,9,-1,-1,-1,-1],"loss_changes":[1.50075E0,8.808496E-1,1.1069169E0,0E0,0E0,6.3525254E-1,4.85245E-2,0E0,0E0,0E0,0E0],"parents":[2147483647,0,0,1,1,2,2,5,5,6,6],"right_children":[2,4,6,-1,-1,8,10,-1,-1,-1,-1],"split_conditions":[-2.2363068E-1,-5.7779884E-1,-2.859652E-1,8.137128E-3,-7.8538425E-2,-8.9326555E-1,-5.530955E-1,3.0550096E-2,-4.310618E-2,1.739572E-2,6.9738165E-2],"split_indices":[19,1,20,0,0,3,21,0,0,0,0],"split_type":[0,0,0,0,0,0,0,0,0,0,0],"sum_hessian":[9.787378E0,3.7295334E0,6.0578456E0,1.6007184E0,2.128815E0,2.9965763E0,3.061269E0,1.0509845E0,1.9455917E0,1.0957581E0,1.9655111E0],"tree_param":{"num_deleted":"0","num_feature":"22","num_nodes":"11","size_leaf_vector":"1"}},{"base_weights":[-3.8760263E-2,-4.6990323E-1,2.5049913E-1,-7.404908E-2,2.2711328E-3,-3.9490107E-1,7.021078E-2,1.8614054E-3,-5.989067E-2],"categories":[],"categories_nodes":[],"categories_segments":[],"categories_sizes":[],"default_left":[0,0,0,0,0,0,0,0,0],"id":33,"left_children":[1,3,5,-1,-1,7,-1,-1,-1],"loss_changes":[1.4277813E0,6.253965E-1,2.2997956E0,0E0,0E0,3.061247E-1,0E0,0E0,0E0],"parents":[2147483647,0,0,1,1,2,2,5,5],"right_children":[2,4,6,-1,-1,8,-1,-1,-1],"split_conditions":[-1.2473805E-1,-2.47916E-1,-9.731356E-1,-7.404908E-2,2.2711328E-3,-9.817933E-1,7.021078E-2,1.8614054E-3,-5.989067E-2],"split_indices":[17,19,14,0,0,14,0,0,0],"split_type":[0,0,0,0,0,0,0,0,0],"sum_hessian":[9.504759E0,3.5656416E0,5.9391165E0,1.9766858E0,1.588956E0,2.4966652E0,3.4424515E0,1.1250234E0,1.3716418E0],"tree_param":{"num_deleted":"0","num_feature":"22","num_nodes":"9","size_leaf_vector":"1"}},{"base_weights":[-4.151092E-2,-3.2508412E-1,3.6278635E-1,-5.6332153E-1,-2.750651E-2,7.389122E-2,-2.6646292E-2,-7.702535E-2,-1.1350959E-2,-3.3344913E-2,2.9478136E-2],"categories":[],"categories_nodes":[],"categories_segments":[],"categories_sizes":[],"default_left":[0,0,0,0,0,0,0,0,0,0,0],"id":34,"left_children":[1,3,5,7,9,-1,-1,-1,-1,-1,-1],"loss_changes":[1.2896715E0,4.4775605E-1,1.3059354E0,2.4558282E-1,4.88432E-1,0E0,0E0,0E0,0E0,0E0,0E0],"parents":[2147483647,0,0,1,1,2,2,3,3,4,4],"right_children":[2,4,6,8,10,-1,-1,-1,-1,-1,-1],"split_conditions":[-8.8342965E-1,-4.2932057E-1,-4.887045E-1,-6.630301E-1,-5.2467036E-1,7.389122E-2,-2.6646292E-2,-7.702535E-2,-1.1350959E-2,-3.3344913E-2,2.9478136E-2],"split_indices":[5,20,1,0,18,0,0,0,0,0,0],"split_type":[0,0,0,0,0,0,0,0,0,0,0],"sum_hessian":[9.2203E0,5.534407E0,3.6858923E0,2.5777023E0,2.9567049E0,2.1978683E0,1.4880241E0,1.2775755E0,1.3001267E0,1.4990499E0,1.4576548E0],"tree_param":{"num_deleted":"0","num_feature":"22","num_nodes":"11","size_leaf_vector":"1"}},{"base_weights":[-4.2385887E-2,-2.6417854E-1,4.526617E-1,6.831469E-3,-6.417953E-2,1.4123659E-3,6.269803E-2,-3.7702042E-1,5.336106E-2,2.8939608E-3,-5.840495E-2],"categories":[],"categories_nodes":[],"categories_segments":[],"categories_sizes":[],"default_left":[0,0,0,0,0,0,0,0,0,0,0],"id":35,"left_children":[1,3,5,7,-1,-1,-1,9,-1,-1,-1],"loss_changes":[1.2168812E0,7.753113E-1,2.5569475E-1,1.2880567E0,0E0,0E0,0E0,3.2748026E-1,0E0,0E0,0E0],"parents":[2147483647,0,0,1,1,2,2,3,3,7,7],"right_children":[2,4,6,8,-1,-1,-1,10,-1,-1,-1],"split_conditions":[-4.182359E-1,1.6767576E-1,2.1099953E-2,-4.4082853E-1,-6.417953E-2,1.4123659E-3,6.269803E-2,-8.926401E-1,5.336106E-2,2.8939608E-3,-5.840495E-2],"split_indices":[21,0,19,0,0,0,0,1,0,0,0],"split_type":[0,0,0,0,0,0,0,0,0,0,0],"sum_hessian":[8.9937935E0,6.5331497E0,2.4606435E0,4.375108E0,2.158042E0,1.0073775E0,1.4532659E0,2.6953552E0,1.6797525E0,1.2008473E0,1.494508E0],"tree_param":{"num_deleted":"0","num_feature":"22","num_nodes":"11","size_leaf_vector":"1"}},{"base_weights":[-3.9476566E-2,-4.3506747E-1,2.3432252E-1,-7.1599625E-2,4.4248058E-4,-3.6199898E-1,6.6351704E-2,2.717105E-3,-5.573795E-2],"categories":[],"categories_nodes":[],"categories_segments":[],"categories_sizes":[],"default_left":[0,0,0,0,0,0,0,0,0],"id":36,"left_children":[1,3,5,-1,-1,7,-1,-1,-1],"loss_changes":[1.1540515E0,5.369357E-1,1.8757446E0,0E0,0E0,2.67699E-1,0E0,0E0,0E0],"parents":[2147483647,0,0,1,1,2,2,5,5],"right_children":[2,4,6,-1,-1,8,-1,-1,-1],"split_conditions":[-1.2473805E-1,-3.0479336E-1,-9.731356E-1,-7.1599625E-2,4.4248058E-4,-9.817933E-1,6.6351704E-2,2.717105E-3,-5.573795E-2],"split_indices":[17,19,14,0,0,14,0,0,0],"split_type":[0,0,0,0,0,0,0,0,0],"sum_hessian":[8.713617E0,3.3231926E0,5.3904243E0,1.643502E0,1.6796906E0,2.3215008E0,3.0689235E0,1.0636984E0,1.2578025E0],"tree_param":{"num_deleted":"0","num_feature":"22","num_nodes":"9","size_leaf_vector":"1"}},{"base_weights":[-4.2417474E-2,-3.055283E-1,3.419407E-1,-5.79462E-2,-4.629933E-2,7.034301E-2,-2.3741432E-2,-3.5509374E-2,2.872189E-2],"categories":[],"categories_nodes":[],"categories_segments":[],"categories_sizes":[],"default_left":[0,0,0,0,0,0,0,0,0],"id":37,"left_children":[1,3,5,-1,7,-1,-1,-1,-1],"loss_changes":[1.0622967E0,4.0993512E-1,1.0718975E0,0E0,5.3937757E-1,0E0,0E0,0E0,0E0],"parents":[2147483647,0,0,1,1,2,2,4,4],"right_children":[2,4,6,-1,8,-1,-1,-1,-1],"split_conditions":[-8.8342965E-1,-4.558933E-1,-4.887045E-1,-5.79462E-2,3.9624482E-1,7.034301E-2,-2.3741432E-2,-3.5509374E-2,2.872189E-2],"split_indices":[5,20,1,0,15,0,0,0,0],"split_type":[0,0,0,0,0,0,0,0,0],"sum_hessian":[8.471331E0,5.150602E0,3.3207288E0,1.9036447E0,3.246957E0,1.9129688E0,1.40776E0,1.652379E0,1.594578E0],"tree_param":{"num_deleted":"0","num_feature":"22","num_nodes":"9","size_leaf_vector":"1"}},{"base_weights":[-4.0657304E-2,-4.232959E-1,2.2156648E-1,8.020318E-3,-7.0934124E-2,-1.4368366E-1,5.3982276E-2,-4.3403756E-2,1.5118631E-2],"categories":[],"categories_nodes":[],"categories_segments":[],"categories_sizes":[],"default_left":[0,0,0,0,0,0,0,0,0],"id":38,"left_children":[1,3,5,-1,-1,7,-1,-1,-1],"loss_changes":[1.0245342E0,6.4963776E-1,7.936897E-1,0E0,0E0,3.7883148E-1,0E0,0E0,0E0],"parents":[2147483647,0,0,1,1,2,2,5,5],"right_children":[2,4,6,-1,-1,8,-1,-1,-1],"split_conditions":[-2.2363068E-1,-5.7779884E-1,-2.859652E-1,8.020318E-3,-7.0934124E-2,-4.7881264E-2,5.3982276E-2,-4.3403756E-2,1.5118631E-2],"split_indices":[19,1,20,0,0,16,0,0,0],"split_type":[0,0,0,0,0,0,0,0,0],"sum_hessian":[8.276206E0,3.11562E0,5.1605864E0,1.3894732E0,1.7261467E0,2.6582952E0,2.5022914E0,1.101602E0,1.5566931E0],"tree_param":{"num_deleted":"0","num_feature":"22","num_nodes":"9","size_leaf_vector":"1"}},{"base_weights":[-4.1705858E-2,-4.063842E-1,2.1655396E-1,-6.6747606E-2,-2.2979407E-4,-3.3694682E-1,6.2458675E-2,3.1992276E-3,-5.2223798E-2],"categories":[],"categories_nodes":[],"categories_segments":[],"categories_sizes":[],"default_left":[0,0,0,0,0,0,0,0,0],"id":39,"left_children":[1,3,5,-1,-1,7,-1,-1,-1],"loss_changes":[9.415653E-1,4.3155515E-1,1.5560336E0,0E0,0E0,2.3395014E-1,0E0,0E0,0E0],"parents":[2147483647,0,0,1,1,2,2,5,5],"right_children":[2,4,6,-1,-1,8,-1,-1,-1],"split_conditions":[-1.2473805E-1,-3.0479336E-1,-9.731356E-1,-6.6747606E-2,-2.2979407E-4,-9.817933E-1,6.2458675E-2,3.1992276E-3,-5.2223798E-2],"split_indices":[17,19,14,0,0,14,0,0,0],"split_type":[0,0,0,0,0,0,0,0,0],"sum_hessian":[8.062914E0,3.1049664E0,4.957947E0,1.4902542E0,1.6147124E0,2.1778657E0,2.7800813E0,1.0047054E0,1.1731602E0],"tree_param":{"num_deleted":"0","num_feature":"22","num_nodes":"9","size_leaf_vector":"1"}},{"base_weights":[-4.4368524E-2,-2.4511392E-1,4.0335086E-1,1.1616365E-2,-5.9701588E-2,3.8597626E-3,5.573825E-2,-3.4946853E-1,5.032751E-2,3.2390181E-3,-5.395168E-2],"categories":[],"categories_nodes":[],"categories_segments":[],"categories_sizes":[],"default_left":[0,0,0,0,0,0,0,0,0,0,0],"id":40,"left_children":[1,3,5,7,-1,-1,-1,9,-1,-1,-1],"loss_changes":[8.9468634E-1,6.154378E-1,1.53727E-1,1.0413797E0,0E0,0E0,0E0,2.642944E-1,0E0,0E0,0E0],"parents":[2147483647,0,0,1,1,2,2,3,3,7,7],"right_children":[2,4,6,8,-1,-1,-1,10,-1,-1,-1],"split_conditions":[-4.182359E-1,1.6767576E-1,4.4637892E-2,-4.4082853E-1,-5.9701588E-2,3.8597626E-3,5.573825E-2,-8.926401E-1,5.032751E-2,3.2390181E-3,-5.395168E-2],"split_indices":[21,0,19,0,0,0,0,1,0,0,0],"split_type":[0,0,0,0,0,0,0,0,0,0,0],"sum_hessian":[7.854479E0,5.7354045E0,2.119074E0,3.875223E0,1.8601817E0,1.0004798E0,1.1185944E0,2.4010468E0,1.4741762E0,1.0735537E0,1.3274931E0],"tree_param":{"num_deleted":"0","num_feature":"22","num_nodes":"11","size_leaf_vector":"1"}},{"base_weights":[-4.1057304E-2,-2.818405E-1,3.1949633E-1,-5.0128704E-1,2.4499975E-3,-2.1268107E-2,6.6381454E-2,-6.919329E-2,-6.799227E-3,2.6616184E-2,-2.8856168E-2],"categories":[],"categories_nodes":[],"categories_segments":[],"categories_sizes":[],"default_left":[0,0,0,0,0,0,0,0,0,0,0],"id":41,"left_children":[1,3,5,7,9,-1,-1,-1,-1,-1,-1],"loss_changes":[8.3947694E-1,3.5728228E-1,8.604361E-1,2.1942466E-1,3.439791E-1,0E0,0E0,0E0,0E0,0E0,0E0],"parents":[2147483647,0,0,1,1,2,2,3,3,4,4],"right_children":[2,4,6,8,10,-1,-1,-1,-1,-1,-1],"split_conditions":[-8.8342965E-1,-4.2932057E-1,-1.2473805E-1,-6.630301E-1,-8.4822804E-1,-2.1268107E-2,6.6381454E-2,-6.919329E-2,-6.799227E-3,2.6616184E-2,-2.8856168E-2],"split_indices":[5,20,17,0,10,0,0,0,0,0,0],"split_type":[0,0,0,0,0,0,0,0,0,0,0],"sum_hessian":[7.632468E0,4.707224E0,2.9252439E0,2.225809E0,2.481415E0,1.2993242E0,1.6259198E0,1.1311868E0,1.0946224E0,1.3465638E0,1.1348512E0],"tree_param":{"num_deleted":"0","num_feature":"22","num_nodes":"11","size_leaf_vector":"1"}},{"base_weights":[-4.137578E-2,-3.297942E-1,2.6227924E-1,-5.8654983E-2,1.1729777E-2,-1.7440446E-2,5.7522036E-2],"categories":[],"categories_nodes":[],"categories_segments":[],"categories_sizes":[],"default_left":[0,0,0,0,0,0,0],"id":42,"left_children":[1,3,5,-1,-1,-1,-1],"loss_changes":[8.2843816E-1,6.184075E-1,7.4039304E-1,0E0,0E0,0E0,0E0],"parents":[2147483647,0,0,1,1,2,2],"right_children":[2,4,6,-1,-1,-1,-1],"split_conditions":[-5.530955E-1,3.9624482E-1,-6.630301E-1,-5.8654983E-2,1.1729777E-2,-1.7440446E-2,5.7522036E-2],"split_indices":[21,15,0,0,0,0,0],"split_type":[0,0,0,0,0,0,0],"sum_hessian":[7.4715977E0,3.7877886E0,3.6838093E0,2.2079098E0,1.5798788E0,1.7226645E0,1.9611447E0],"tree_param":{"num_deleted":"0","num_feature":"22","num_nodes":"7","size_leaf_vector":"1"}},{"base_weights":[-3.868588E-2,-3.907309E-1,2.033571E-1,7.639192E-3,-6.582854E-2,-1.2430467E-1,4.954179E-2,1.9263059E-2,-3.3500772E-2],"categories":[],"categories_nodes":[],"categories_segments":[],"categories_sizes":[],"default_left":[0,0,0,0,0,0,0,0,0],"id":43,"left_children":[1,3,5,-1,-1,7,-1,-1,-1],"loss_changes":[7.8825885E-1,5.1663244E-1,5.9623796E-1,0E0,0E0,2.9374695E-1,0E0,0E0,0E0],"parents":[2147483647,0,0,1,1,2,2,5,5],"right_children":[2,4,6,-1,-1,8,-1,-1,-1],"split_conditions":[-2.2363068E-1,-5.7779884E-1,-2.859652E-1,7.639192E-3,-6.582854E-2,-8.831004E-1,4.954179E-2,1.9263059E-2,-3.3500772E-2],"split_indices":[19,1,20,0,0,3,0,0,0],"split_type":[0,0,0,0,0,0,0,0,0],"sum_hessian":[7.3182817E0,2.7313306E0,4.586951E0,1.2548944E0,1.4764363E0,2.4324183E0,2.1545324E0,1.005595E0,1.4268235E0],"tree_param":{"num_deleted":"0","num_feature":"22","num_nodes":"9","size_leaf_vector":"1"}},{"base_weights":[-3.845813E-2,-4.377124E-2,1.6697349E-1,-2.9483047E-1,5.0609745E-2,6.1260466E-3,-5.003192E-2],"categories":[],"categories_nodes":[],"categories_segments":[],"categories_sizes":[],"default_left":[0,0,0,0,0,0,0],"id":44,"left_children":[1,-1,3,5,-1,-1,-1],"loss_changes":[7.416855E-1,0E0,1.1054939E0,2.6607028E-1,0E0,0E0,0E0],"parents":[2147483647,0,0,2,2,3,3],"right_children":[2,-1,4,6,-1,-1,-1],"split_conditions":[-2.1273595E-1,-4.377124E-2,-9.731356E-1,-9.817933E-1,5.0609745E-2,6.1260466E-3,-5.003192E-2],"split_indices":[17,0,14,14,0,0,0],"split_type":[0,0,0,0,0,0,0],"sum_hessian":[7.151714E0,2.045537E0,5.106177E0,2.2173283E0,2.8888483E0,1.068173E0,1.1491554E0],"tree_param":{"num_deleted":"0","num_feature":"22","num_nodes":"7","size_leaf_vector":"1"}},{"base_weights":[-3.973807E-2,1.5700075E-1,-4.509646E-2,-2.7862458E-2,4.322336E-1,6.583985E-2,5.3204796E-3],"categories":[],"categories_nodes":[],"categories_segments":[],"categories_sizes":[],"default_left":[0,0,0,0,0,0,0],"id":45,"left_children":[1,3,-1,-1,5,-1,-1],"loss_changes":[7.191361E-1,8.592622E-1,0E0,0E0,3.2228225E-1,0E0,0E0],"parents":[2147483647,0,0,1,1,4,4],"right_children":[2,4,-1,-1,6,-1,-1],"split_conditions":[2.813497E-1,-6.630301E-1,-4.509646E-2,-2.7862458E-2,-8.459168E-1,6.583985E-2,5.3204796E-3],"split_indices":[0,0,0,0,10,0,0],"split_type":[0,0,0,0,0,0,0],"sum_hessian":[7.0136027E0,5.162145E0,1.8514577E0,1.9939282E0,3.1682167E0,1.5226128E0,1.6456039E0],"tree_param":{"num_deleted":"0","num_feature":"22","num_nodes":"7","size_leaf_vector":"1"}},{"base_weights":[-3.6367457E-2,-2.300375E-1,3.8008172E-2,5.9169983E-3,-5.37876E-2,5.0792214E-2,-3.126071E-1,-5.305719E-2,7.56243E-3],"categories":[],"categories_nodes":[],"categories_segments":[],"categories_sizes":[],"default_left":[0,0,0,0,0,0,0,0,0],"id":46,"left_children":[1,3,-1,5,-1,-1,7,-1,-1],"loss_changes":[7.23207E-1,4.3925208E-1,0E0,8.603718E-1,0E0,0E0,3.1966233E-1,0E0,0E0],"parents":[2147483647,0,0,1,1,3,3,6,6],"right_children":[2,4,-1,6,-1,-1,8,-1,-1],"split_conditions":[-4.182359E-1,1.6767576E-1,3.8008172E-2,-8.989835E-1,-5.37876E-2,5.0792214E-2,-9.007707E-1,-5.305719E-2,7.56243E-3],"split_indices":[21,0,0,3,0,0,5,0,0],"split_type":[0,0,0,0,0,0,0,0,0],"sum_hessian":[6.88276E0,5.0035E0,1.8792602E0,3.3876705E0,1.6158296E0,1.0842475E0,2.303423E0,1.2403916E0,1.0630314E0],"tree_param":{"num_deleted":"0","num_feature":"22","num_nodes":"9","size_leaf_vector":"1"}},{"base_weights":[-3.492213E-2,-2.6581594E-1,3.0861527E-1,-4.710748E-2,1.2621214E-2,6.2700026E-2,-1.9764768E-2,-2.357144E-2,2.441594E-2],"categories":[],"categories_nodes":[],"categories_segments":[],"categories_sizes":[],"default_left":[0,0,0,0,0,0,0,0,0],"id":47,"left_children":[1,3,5,-1,7,-1,-1,-1,-1],"loss_changes":[6.9329685E-1,3.0004463E-1,6.9779336E-1,0E0,2.3911195E-1,0E0,0E0,0E0,0E0],"parents":[2147483647,0,0,1,1,2,2,4,4],"right_children":[2,4,6,-1,8,-1,-1,-1,-1],"split_conditions":[-8.8342965E-1,-4.2932057E-1,-4.887045E-1,-4.710748E-2,-5.2467036E-1,6.2700026E-2,-1.9764768E-2,-2.357144E-2,2.441594E-2],"split_indices":[5,20,1,0,18,0,0,0,0],"split_type":[0,0,0,0,0,0,0,0,0],"sum_hessian":[6.706214E0,4.145939E0,2.560275E0,1.988327E0,2.1576116E0,1.4253782E0,1.1348969E0,1.0323409E0,1.1252708E0],"tree_param":{"num_deleted":"0","num_feature":"22","num_nodes":"9","size_leaf_vector":"1"}},{"base_weights":[-3.2211166E-2,-3.6315948E-1,1.9299637E-1,6.818462E-3,-6.107114E-2,-1.0780897E-1,4.6166968E-2,-3.1839393E-2,1.48900915E-2],"categories":[],"categories_nodes":[],"categories_segments":[],"categories_sizes":[],"default_left":[0,0,0,0,0,0,0,0,0],"id":48,"left_children":[1,3,5,-1,-1,7,-1,-1,-1],"loss_changes":[6.34488E-1,4.0612707E-1,4.6672606E-1,0E0,0E0,2.228159E-1,0E0,0E0,0E0],"parents":[2147483647,0,0,1,1,2,2,5,5],"right_children":[2,4,6,-1,-1,8,-1,-1,-1],"split_conditions":[-2.2363068E-1,-5.7779884E-1,-2.859652E-1,6.818462E-3,-6.107114E-2,-5.061761E-1,4.6166968E-2,-3.1839393E-2,1.48900915E-2],"split_indices":[19,1,20,0,0,21,0,0,0],"split_type":[0,0,0,0,0,0,0,0,0],"sum_hessian":[6.572575E0,2.4134269E0,4.159148E0,1.1442338E0,1.269193E0,2.2447135E0,1.9144347E0,1.101138E0,1.1435754E0],"tree_param":{"num_deleted":"0","num_feature":"22","num_nodes":"9","size_leaf_vector":"1"}},{"base_weights":[-3.3017196E-2,-4.0145125E-2,1.6383983E-1,-2.6231756E-2,4.7178105E-2],"categories":[],"categories_nodes":[],"categories_segments":[],"categories_sizes":[],"default_left":[0,0,0,0,0],"id":49,"left_children":[1,-1,3,-1,-1],"loss_changes":[6.0480464E-1,0E0,8.5261786E-1,0E0,0E0],"parents":[2147483647,0,0,2,2],"right_children":[2,-1,4,-1,-1],"split_conditions":[-2.1273595E-1,-4.0145125E-2,-9.731356E-1,-2.6231756E-2,4.7178105E-2],"split_indices":[17,0,14,0,0],"split_type":[0,0,0,0,0],"sum_hessian":[6.431953E0,1.8779367E0,4.554016E0,1.9724773E0,2.581539E0],"tree_param":{"num_deleted":"0","num_feature":"22","num_nodes":"5","size_leaf_vector":"1"}},{"base_weights":[-3.259968E-2,-2.0890349E-1,3.450884E-2,1.287083E-2,-5.0308645E-2,4.9065944E-2,-2.9885274E-1,-1.368733E-3,-4.2841483E-2],"categories":[],"categories_nodes":[],"categories_segments":[],"categories_sizes":[],"default_left":[0,0,0,0,0,0,0,0,0],"id":50,"left_children":[1,3,-1,5,-1,-1,7,-1,-1],"loss_changes":[5.6029373E-1,3.732257E-1,0E0,7.692232E-1,0E0,0E0,1.10562E-1,0E0,0E0],"parents":[2147483647,0,0,1,1,3,3,6,6],"right_children":[2,4,-1,6,-1,-1,8,-1,-1],"split_conditions":[-4.182359E-1,1.6767576E-1,3.450884E-2,-8.989835E-1,-5.0308645E-2,4.9065944E-2,2.849414E-1,-1.368733E-3,-4.2841483E-2],"split_indices":[21,0,0,3,0,0,17,0,0],"split_type":[0,0,0,0,0,0,0,0,0],"sum_hessian":[6.331721E0,4.6213675E0,1.7103535E0,3.180185E0,1.4411823E0,1.0289934E0,2.1511917E0,1.0174447E0,1.133747E0],"tree_param":{"num_deleted":"0","num_feature":"22","num_nodes":"9","size_leaf_vector":"1"}},{"base_weights":[-3.1466074E-2,-2.4504723E-1,2.9064485E-1,-4.379107E-2,3.6705707E-3,5.9168704E-2,-1.7906005E-2],"categories":[],"categories_nodes":[],"categories_segments":[],"categories_sizes":[],"default_left":[0,0,0,0,0,0,0],"id":51,"left_children":[1,3,5,-1,-1,-1,-1],"loss_changes":[5.6589454E-1,2.8049716E-1,5.759983E-1,0E0,0E0,0E0,0E0],"parents":[2147483647,0,0,1,1,2,2],"right_children":[2,4,6,-1,-1,-1,-1],"split_conditions":[-8.8342965E-1,3.9624482E-1,-4.887045E-1,-4.379107E-2,3.6705707E-3,5.9168704E-2,-1.7906005E-2],"split_indices":[5,15,1,0,0,0,0],"split_type":[0,0,0,0,0,0,0],"sum_hessian":[6.1903434E0,3.8661034E0,2.32424E0,1.9660681E0,1.9000354E0,1.258162E0,1.066078E0],"tree_param":{"num_deleted":"0","num_feature":"22","num_nodes":"7","size_leaf_vector":"1"}},{"base_weights":[-2.8356722E-2,-3.4139282E-1,1.8410161E-1,6.109795E-3,-5.7538826E-2,-1.0022296E-1,4.376798E-2,-2.9243922E-2,1.3470612E-2],"categories":[],"categories_nodes":[],"categories_segments":[],"categories_sizes":[],"default_left":[0,0,0,0,0,0,0,0,0],"id":52,"left_children":[1,3,5,-1,-1,7,-1,-1,-1],"loss_changes":[5.3471524E-1,3.383085E-1,3.9542547E-1,0E0,0E0,1.7993933E-1,0E0,0E0,0E0],"parents":[2147483647,0,0,1,1,2,2,5,5],"right_children":[2,4,6,-1,-1,8,-1,-1,-1],"split_conditions":[-2.2363068E-1,-5.7779884E-1,-2.859652E-1,6.109795E-3,-5.7538826E-2,-5.061761E-1,4.376798E-2,-2.9243922E-2,1.3470612E-2],"split_indices":[19,1,20,0,0,21,0,0,0],"split_type":[0,0,0,0,0,0,0,0,0],"sum_hessian":[6.0949435E0,2.2188382E0,3.8761055E0,1.0873693E0,1.1314689E0,2.1123726E0,1.7637328E0,1.0271622E0,1.0852104E0],"tree_param":{"num_deleted":"0","num_feature":"22","num_nodes":"9","size_leaf_vector":"1"}},{"base_weights":[-2.9411782E-2,-3.74912E-2,1.604353E-1,-2.3572503E-2,4.4654485E-2],"categories":[],"categories_nodes":[],"categories_segments":[],"categories_sizes":[],"default_left":[0,0,0,0,0],"id":53,"left_children":[1,-1,3,-1,-1],"loss_changes":[5.176404E-1,0E0,6.948465E-1,0E0,0E0],"parents":[2147483647,0,0,2,2],"right_children":[2,-1,4,-1,-1],"split_conditions":[-2.1273595E-1,-3.74912E-2,-9.731356E-1,-2.3572503E-2,4.4654485E-2],"split_indices":[17,0,14,0,0],"split_type":[0,0,0,0,0],"sum_hessian":[5.9747815E0,1.7731106E0,4.201671E0,1.8358169E0,2.365854E0],"tree_param":{"num_deleted":"0","num_feature":"22","num_nodes":"5","size_leaf_vector":"1"}},{"base_weights":[-2.905278E-2,-3.2553777E-1,1.7198128E-1,6.1647347E-3,-5.5619806E-2,-9.782584E-2,4.1615706E-2,-2.8383909E-2,1.3022532E-2],"categories":[],"categories_nodes":[],"categories_segments":[],"categories_sizes":[],"default_left":[0,0,0,0,0,0,0,0,0],"id":54,"left_children":[1,3,5,-1,-1,7,-1,-1,-1],"loss_changes":[4.666726E-1,3.138104E-1,3.5432994E-1,0E0,0E0,1.6724457E-1,0E0,0E0,0E0],"parents":[2147483647,0,0,1,1,2,2,5,5],"right_children":[2,4,6,-1,-1,8,-1,-1,-1],"split_conditions":[-2.2363068E-1,-5.7779884E-1,-2.859652E-1,6.1647347E-3,-5.5619806E-2,-5.061761E-1,4.1615706E-2,-2.8383909E-2,1.3022532E-2],"split_indices":[19,1,20,0,0,21,0,0,0],"split_type":[0,0,0,0,0,0,0,0,0],"sum_hessian":[5.8902936E0,2.12986E0,3.7604337E0,1.068693E0,1.061167E0,2.0711908E0,1.6892428E0,1.0060018E0,1.065189E0],"tree_param":{"num_deleted":"0","num_feature":"22","num_nodes":"9","size_leaf_vector":"1"}},{"base_weights":[-3.0079016E-2,-3.5774164E-2,1.526555E-1,-2.1804068E-2,4.2327214E-2],"categories":[],"categories_nodes":[],"categories_segments":[],"categories_sizes":[],"default_left":[0,0,0,0,0],"id":55,"left_children":[1,-1,3,-1,-1],"loss_changes":[4.606096E-1,0E0,5.9928805E-1,0E0,0E0],"parents":[2147483647,0,0,2,2],"right_children":[2,-1,4,-1,-1],"split_conditions":[-2.1273595E-1,-3.5774164E-2,-9.731356E-1,-2.1804068E-2,4.2327214E-2],"split_indices":[17,0,14,0,0],"split_type":[0,0,0,0,0],"sum_hessian":[5.780736E0,1.7267592E0,4.053977E0,1.7926502E0,2.2613268E0],"tree_param":{"num_deleted":"0","num_feature":"22","num_nodes":"5","size_leaf_vector":"1"}},{"base_weights":[-2.9538732E-2,-2.9577968E-1,1.7553307E-1,-5.1477145E-2,3.3622335E-3,-2.225438E-2,4.7832135E-2],"categories":[],"categories_nodes":[],"categories_segments":[],"categories_sizes":[],"default_left":[0,0,0,0,0,0,0],"id":56,"left_children":[1,3,5,-1,-1,-1,-1],"loss_changes":[4.180593E-1,2.54657E-1,6.3869226E-1,0E0,0E0,0E0,0E0],"parents":[2147483647,0,0,1,1,2,2],"right_children":[2,4,6,-1,-1,-1,-1],"split_conditions":[-1.2473805E-1,-3.0479336E-1,-9.731356E-1,-5.1477145E-2,3.3622335E-3,-2.225438E-2,4.7832135E-2],"split_indices":[17,19,14,0,0,0,0],"split_type":[0,0,0,0,0,0,0],"sum_hessian":[5.7060466E0,2.2902868E0,3.4157598E0,1.0376772E0,1.2526097E0,1.5901725E0,1.8255873E0],"tree_param":{"num_deleted":"0","num_feature":"22","num_nodes":"7","size_leaf_vector":"1"}},{"base_weights":[-3.0338394E-2,-1.8703382E-1,3.0260995E-2,8.494797E-2,-4.149663E-2,-1.12121245E-2,2.477218E-2],"categories":[],"categories_nodes":[],"categories_segments":[],"categories_sizes":[],"default_left":[0,0,0,0,0,0,0],"id":57,"left_children":[1,3,-1,5,-1,-1,-1],"loss_changes":[4.0128174E-1,3.5206676E-1,0E0,1.2914562E-1,0E0,0E0,0E0],"parents":[2147483647,0,0,1,1,3,3],"right_children":[2,4,-1,6,-1,-1,-1],"split_conditions":[-4.182359E-1,-8.459168E-1,3.0260995E-2,-9.355234E-1,-4.149663E-2,-1.12121245E-2,2.477218E-2],"split_indices":[21,10,0,12,0,0,0],"split_type":[0,0,0,0,0,0,0],"sum_hessian":[5.6067405E0,4.110477E0,1.4962634E0,2.1601617E0,1.9503152E0,1.117905E0,1.0422566E0],"tree_param":{"num_deleted":"0","num_feature":"22","num_nodes":"7","size_leaf_vector":"1"}},{"base_weights":[-2.7254889E-2,-2.0939422E-1,2.5985911E-2,-3.8828692E-1,1.0589837E-2,-7.2780373E-3,-5.122247E-2],"categories":[],"categories_nodes":[],"categories_segments":[],"categories_sizes":[],"default_left":[0,0,0,0,0,0,0],"id":58,"left_children":[1,3,-1,5,-1,-1,-1],"loss_changes":[3.9639264E-1,2.9803485E-1,0E0,8.4736735E-2,0E0,0E0,0E0],"parents":[2147483647,0,0,1,1,3,3],"right_children":[2,4,-1,6,-1,-1,-1],"split_conditions":[-8.8342965E-1,-4.4082853E-1,2.5985911E-2,-8.8500637E-1,1.0589837E-2,-7.2780373E-3,-5.122247E-2],"split_indices":[5,0,0,3,0,0,0],"split_type":[0,0,0,0,0,0,0],"sum_hessian":[5.5394635E0,3.554961E0,1.9845024E0,2.1203759E0,1.4345851E0,1.0456678E0,1.0747081E0],"tree_param":{"num_deleted":"0","num_feature":"22","num_nodes":"7","size_leaf_vector":"1"}},{"base_weights":[-2.820765E-2,-2.920143E-1,1.7766269E-1,-4.717702E-2,2.3083526E-3,-1.9984128E-2,4.634783E-2],"categories":[],"categories_nodes":[],"categories_segments":[],"categories_sizes":[],"default_left":[0,0,0,0,0,0,0],"id":59,"left_children":[1,3,5,-1,-1,-1,-1],"loss_changes":[4.0398654E-1,1.932753E-1,5.5261093E-1,0E0,0E0,0E0,0E0],"parents":[2147483647,0,0,1,1,2,2],"right_children":[2,4,6,-1,-1,-1,-1],"split_conditions":[-1.2473805E-1,-2.47916E-1,-9.731356E-1,-4.717702E-2,2.3083526E-3,-1.9984128E-2,4.634783E-2],"split_indices":[17,19,14,0,0,0,0],"split_type":[0,0,0,0,0,0,0],"sum_hessian":[5.483278E0,2.220037E0,3.2632406E0,1.0970038E0,1.1230332E0,1.5356994E0,1.7275412E0],"tree_param":{"num_deleted":"0","num_feature":"22","num_nodes":"7","size_leaf_vector":"1"}},{"base_weights":[-2.8568184E-2,-3.249794E-2,1.4272374E-1,-1.6854335E-2,3.7365668E-2],"categories":[],"categories_nodes":[],"categories_segments":[],"categories_sizes":[],"default_left":[0,0,0,0,0],"id":60,"left_children":[1,-1,3,-1,-1],"loss_changes":[3.7106347E-1,0E0,4.04243E-1,0E0,0E0],"parents":[2147483647,0,0,2,2],"right_children":[2,-1,4,-1,-1],"split_conditions":[-2.1273595E-1,-3.249794E-2,-9.731356E-1,-1.6854335E-2,3.7365668E-2],"split_indices":[17,0,14,0,0],"split_type":[0,0,0,0,0],"sum_hessian":[5.3947816E0,1.6471881E0,3.7475934E0,1.7112362E0,2.0363572E0],"tree_param":{"num_deleted":"0","num_feature":"22","num_nodes":"5","size_leaf_vector":"1"}},{"base_weights":[-2.7755283E-2,1.2711754E-1,-3.4832384E-2,-2.7184159E-2,3.9503363E-1,5.897501E-2,1.1808923E-3],"categories":[],"categories_nodes":[],"categories_segments":[],"categories_sizes":[],"default_left":[0,0,0,0,0,0,0],"id":61,"left_children":[1,3,-1,-1,5,-1,-1],"loss_changes":[3.5895413E-1,6.4248806E-1,0E0,0E0,2.4693877E-1,0E0,0E0],"parents":[2147483647,0,0,1,1,4,4],"right_children":[2,4,-1,-1,6,-1,-1],"split_conditions":[2.813497E-1,-6.630301E-1,-3.4832384E-2,-2.7184159E-2,-8.3481574E-1,5.897501E-2,1.1808923E-3],"split_indices":[0,0,0,0,3,0,0],"split_type":[0,0,0,0,0,0,0],"sum_hessian":[5.338224E0,4.0062094E0,1.3320147E0,1.6036019E0,2.4026074E0,1.2357885E0,1.166819E0],"tree_param":{"num_deleted":"0","num_feature":"22","num_nodes":"7","size_leaf_vector":"1"}},{"base_weights":[-2.5426649E-2,-2.2605114E-1,2.2806042E-1,-4.2020556E-2,1.1854168E-2,-1.3337632E-2,5.2011427E-2],"categories":[],"categories_nodes":[],"categories_segments":[],"categories_sizes":[],"default_left":[0,0,0,0,0,0,0],"id":62,"left_children":[1,3,5,-1,-1,-1,-1],"loss_changes":[3.6919674E-1,3.1667557E-1,4.132009E-1,0E0,0E0,0E0,0E0],"parents":[2147483647,0,0,1,1,2,2],"right_children":[2,4,6,-1,-1,-1,-1],"split_conditions":[-5.061761E-1,3.9624482E-1,-1.23860076E-1,-4.2020556E-2,1.1854168E-2,-1.3337632E-2,5.2011427E-2],"split_indices":[21,15,19,0,0,0,0],"split_type":[0,0,0,0,0,0,0],"sum_hessian":[5.245974E0,2.9887426E0,2.2572315E0,1.7713068E0,1.217436E0,1.2516026E0,1.0056288E0],"tree_param":{"num_deleted":"0","num_feature":"22","num_nodes":"7","size_leaf_vector":"1"}},{"base_weights":[-2.171353E-2,-1.9489785E-1,2.4863243E-2,-4.516677E-2,4.9360055E-2,-1.7877547E-2,2.6350051E-2],"categories":[],"categories_nodes":[],"categories_segments":[],"categories_sizes":[],"default_left":[0,0,0,0,0,0,0],"id":63,"left_children":[1,3,-1,-1,5,-1,-1],"loss_changes":[3.3703446E-1,2.930779E-1,0E0,0E0,1.9924203E-1,0E0,0E0],"parents":[2147483647,0,0,1,1,4,4],"right_children":[2,4,-1,-1,6,-1,-1],"split_conditions":[-8.8342965E-1,-4.558933E-1,2.4863243E-2,-4.516677E-2,4.010404E-1,-1.7877547E-2,2.6350051E-2],"split_indices":[5,20,0,0,15,0,0],"split_type":[0,0,0,0,0,0,0],"sum_hessian":[5.1635733E0,3.3174722E0,1.8461013E0,1.2033443E0,2.1141276E0,1.1035763E0,1.0105515E0],"tree_param":{"num_deleted":"0","num_feature":"22","num_nodes":"7","size_leaf_vector":"1"}},{"base_weights":[-2.1723071E-2,1.3048981E-1,-3.32068E-2,-2.4765005E-2,3.8402283E-1,5.698789E-2,1.3234367E-3],"categories":[],"categories_nodes":[],"categories_segments":[],"categories_sizes":[],"default_left":[0,0,0,0,0,0,0],"id":64,"left_children":[1,3,-1,-1,5,-1,-1],"loss_changes":[3.316958E-1,5.565834E-1,0E0,0E0,2.1805286E-1,0E0,0E0],"parents":[2147483647,0,0,1,1,4,4],"right_children":[2,4,-1,-1,6,-1,-1],"split_conditions":[2.813497E-1,-6.630301E-1,-3.32068E-2,-2.4765005E-2,-8.3481574E-1,5.698789E-2,1.3234367E-3],"split_indices":[0,0,0,0,3,0,0],"split_type":[0,0,0,0,0,0,0],"sum_hessian":[5.104434E0,3.8135564E0,1.2908773E0,1.5399512E0,2.273605E0,1.1568176E0,1.1167877E0],"tree_param":{"num_deleted":"0","num_feature":"22","num_nodes":"7","size_leaf_vector":"1"}},{"base_weights":[-1.9563377E-2,-2.1727787E-1,2.2832151E-1,8.207587E-3,-4.1910604E-2,-9.62287E-3,4.3771546E-2],"categories":[],"categories_nodes":[],"categories_segments":[],"categories_sizes":[],"default_left":[0,0,0,0,0,0,0],"id":65,"left_children":[1,3,5,-1,-1,-1,-1],"loss_changes":[3.4467888E-1,2.6770842E-1,2.5679958E-1,0E0,0E0,0E0,0E0],"parents":[2147483647,0,0,1,1,2,2],"right_children":[2,4,6,-1,-1,-1,-1],"split_conditions":[-5.061761E-1,-8.181818E-1,-1.4590776E-1,8.207587E-3,-4.1910604E-2,-9.62287E-3,4.3771546E-2],"split_indices":[21,4,19,0,0,0,0],"split_type":[0,0,0,0,0,0,0],"sum_hessian":[5.020548E0,2.861595E0,2.158953E0,1.3913167E0,1.4702783E0,1.0586069E0,1.1003461E0],"tree_param":{"num_deleted":"0","num_feature":"22","num_nodes":"7","size_leaf_vector":"1"}},{"base_weights":[-1.7678654E-2,-1.896742E-1,2.4504233E-2,-4.3094937E-2,4.330162E-2,-1.3027469E-2,1.9572882E-2],"categories":[],"categories_nodes":[],"categories_segments":[],"categories_sizes":[],"default_left":[0,0,0,0,0,0,0],"id":66,"left_children":[1,3,-1,-1,5,-1,-1],"loss_changes":[3.1562805E-1,2.5269198E-1,0E0,0E0,1.0558173E-1,0E0,0E0],"parents":[2147483647,0,0,1,1,4,4],"right_children":[2,4,-1,-1,6,-1,-1],"split_conditions":[-8.8342965E-1,-4.558933E-1,2.4504233E-2,-4.3094937E-2,-5.9868526E-1,-1.3027469E-2,1.9572882E-2],"split_indices":[5,20,0,0,21,0,0],"split_type":[0,0,0,0,0,0,0],"sum_hessian":[4.9563766E0,3.16342E0,1.7929567E0,1.1365855E0,2.0268342E0,1.0156245E0,1.0112097E0],"tree_param":{"num_deleted":"0","num_feature":"22","num_nodes":"7","size_leaf_vector":"1"}},{"base_weights":[-1.814157E-2,-2.6063278E-2,1.7205447E-1,-1.6887823E-2,4.264915E-2],"categories":[],"categories_nodes":[],"categories_segments":[],"categories_sizes":[],"default_left":[0,0,0,0,0],"id":67,"left_children":[1,-1,3,-1,-1],"loss_changes":[3.1717062E-1,0E0,4.113321E-1,0E0,0E0],"parents":[2147483647,0,0,2,2],"right_children":[2,-1,4,-1,-1],"split_conditions":[-1.2473805E-1,-2.6063278E-2,-9.731356E-1,-1.6887823E-2,4.264915E-2],"split_indices":[17,0,14,0,0],"split_type":[0,0,0,0,0],"sum_hessian":[4.9046497E0,1.9931446E0,2.9115052E0,1.387967E0,1.5235382E0],"tree_param":{"num_deleted":"0","num_feature":"22","num_nodes":"5","size_leaf_vector":"1"}},{"base_weights":[-1.641487E-2,-2.0428841E-1,2.2041018E-1,-3.862394E-2,1.1393267E-2,-8.745377E-3,4.196266E-2],"categories":[],"categories_nodes":[],"categories_segments":[],"categories_sizes":[],"default_left":[0,0,0,0,0,0,0],"id":68,"left_children":[1,3,5,-1,-1,-1,-1],"loss_changes":[3.052812E-1,2.6291215E-1,2.2489807E-1,0E0,0E0,0E0,0E0],"parents":[2147483647,0,0,1,1,2,2],"right_children":[2,4,6,-1,-1,-1,-1],"split_conditions":[-5.061761E-1,3.9624482E-1,-1.4590776E-1,-3.862394E-2,1.1393267E-2,-8.745377E-3,4.196266E-2],"split_indices":[21,15,19,0,0,0,0],"split_type":[0,0,0,0,0,0,0],"sum_hessian":[4.849303E0,2.7807322E0,2.0685704E0,1.6331763E0,1.1475558E0,1.0330824E0,1.035488E0],"tree_param":{"num_deleted":"0","num_feature":"22","num_nodes":"7","size_leaf_vector":"1"}},{"base_weights":[-1.3864227E-2,1.3390966E-1,-3.121598E-2,-2.2430653E-2,3.7402457E-1,5.460445E-2,1.6999505E-3],"categories":[],"categories_nodes":[],"categories_segments":[],"categories_sizes":[],"default_left":[0,0,0,0,0,0,0],"id":69,"left_children":[1,3,-1,-1,5,-1,-1],"loss_changes":[2.969104E-1,4.7697017E-1,0E0,0E0,1.8177295E-1,0E0,0E0],"parents":[2147483647,0,0,1,1,4,4],"right_children":[2,4,-1,-1,6,-1,-1],"split_conditions":[2.813497E-1,-6.630301E-1,-3.121598E-2,-2.2430653E-2,-8.3481574E-1,5.460445E-2,1.6999505E-3],"split_indices":[0,0,0,0,3,0,0],"split_type":[0,0,0,0,0,0,0],"sum_hessian":[4.7873755E0,3.5699346E0,1.2174406E0,1.4590633E0,2.1108713E0,1.0672337E0,1.0436378E0],"tree_param":{"num_deleted":"0","num_feature":"22","num_nodes":"7","size_leaf_vector":"1"}},{"base_weights":[-1.19902035E-2,-1.8129225E-1,2.4203686E-2,7.4518765E-3,-3.8249657E-2],"categories":[],"categories_nodes":[],"categories_segments":[],"categories_sizes":[],"default_left":[0,0,0,0,0],"id":70,"left_children":[1,3,-1,-1,-1],"loss_changes":[2.895635E-1,2.3436956E-1,0E0,0E0,0E0],"parents":[2147483647,0,0,1,1],"right_children":[2,4,-1,-1,-1],"split_conditions":[-8.8342965E-1,-9.0246516E-1,2.4203686E-2,7.4518765E-3,-3.8249657E-2],"split_indices":[5,6,0,0,0],"split_type":[0,0,0,0,0],"sum_hessian":[4.712613E0,2.9997137E0,1.7128996E0,1.5978477E0,1.401866E0],"tree_param":{"num_deleted":"0","num_feature":"22","num_nodes":"5","size_leaf_vector":"1"}},{"base_weights":[-1.2047492E-2,-1.98506E-1,2.2103425E-2,8.417155E-3,-3.9218806E-2],"categories":[],"categories_nodes":[],"categories_segments":[],"categories_sizes":[],"default_left":[0,0,0,0,0],"id":71,"left_children":[1,3,-1,-1,-1],"loss_changes":[2.9062536E-1,2.3455083E-1,0E0,0E0,0E0],"parents":[2147483647,0,0,1,1],"right_children":[2,4,-1,-1,-1],"split_conditions":[-5.061761E-1,-8.181818E-1,2.2103425E-2,8.417155E-3,-3.9218806E-2],"split_indices":[21,4,0,0,0],"split_type":[0,0,0,0,0],"sum_hessian":[4.6775966E0,2.6811209E0,1.9964758E0,1.3200018E0,1.3611192E0],"tree_param":{"num_deleted":"0","num_feature":"22","num_nodes":"5","size_leaf_vector":"1"}},{"base_weights":[-1.25102205E-2,-2.6495049E-2,1.6076383E-1,-8.306148E-3,3.431505E-2],"categories":[],"categories_nodes":[],"categories_segments":[],"categories_sizes":[],"default_left":[0,0,0,0,0],"id":72,"left_children":[1,-1,3,-1,-1],"loss_changes":[2.8923815E-1,0E0,2.0487244E-1,0E0,0E0],"parents":[2147483647,0,0,2,2],"right_children":[2,-1,4,-1,-1],"split_conditions":[-2.2363068E-1,-2.6495049E-2,-5.061761E-1,-8.306148E-3,3.431505E-2],"split_indices":[19,0,21,0,0],"split_type":[0,0,0,0,0],"sum_hessian":[4.638686E0,1.6726886E0,2.9659975E0,1.5022657E0,1.4637318E0],"tree_param":{"num_deleted":"0","num_feature":"22","num_nodes":"5","size_leaf_vector":"1"}},{"base_weights":[-1.137408E-2,1.348726E-1,-3.0205606E-2,-2.1512397E-2,3.688489E-1,5.3316135E-2,2.064605E-3],"categories":[],"categories_nodes":[],"categories_segments":[],"categories_sizes":[],"default_left":[0,0,0,0,0,0,0],"id":73,"left_children":[1,3,-1,-1,5,-1,-1],"loss_changes":[2.788453E-1,4.411083E-1,0E0,0E0,1.6155007E-1,0E0,0E0],"parents":[2147483647,0,0,1,1,4,4],"right_children":[2,4,-1,-1,6,-1,-1],"split_conditions":[2.813497E-1,-6.630301E-1,-3.0205606E-2,-2.1512397E-2,-8.459168E-1,5.3316135E-2,2.064605E-3],"split_indices":[0,0,0,0,10,0,0],"split_type":[0,0,0,0,0,0,0],"sum_hessian":[4.601014E0,3.4175858E0,1.183428E0,1.401583E0,2.016003E0,1.0087883E0,1.0072147E0],"tree_param":{"num_deleted":"0","num_feature":"22","num_nodes":"7","size_leaf_vector":"1"}},{"base_weights":[-9.531418E-3,-2.3861304E-2,1.6855136E-1,-1.56708E-2,4.1012116E-2],"categories":[],"categories_nodes":[],"categories_segments":[],"categories_sizes":[],"default_left":[0,0,0,0,0],"id":74,"left_children":[1,-1,3,-1,-1],"loss_changes":[2.658991E-1,0E0,3.548698E-1,0E0,0E0],"parents":[2147483647,0,0,2,2],"right_children":[2,-1,4,-1,-1],"split_conditions":[-1.2473805E-1,-2.3861304E-2,-9.731356E-1,-1.56708E-2,4.1012116E-2],"split_indices":[17,0,14,0,0],"split_type":[0,0,0,0,0],"sum_hessian":[4.5319967E0,1.8335108E0,2.6984859E0,1.2997469E0,1.398739E0],"tree_param":{"num_deleted":"0","num_feature":"22","num_nodes":"5","size_leaf_vector":"1"}},{"base_weights":[-8.275696E-3,-1.7068022E-1,2.3465075E-2,-4.0553655E-2,5.3743995E-3],"categories":[],"categories_nodes":[],"categories_segments":[],"categories_sizes":[],"default_left":[0,0,0,0,0],"id":75,"left_children":[1,3,-1,-1,-1],"loss_changes":[2.5639477E-1,2.2553283E-1,0E0,0E0,0E0],"parents":[2147483647,0,0,1,1],"right_children":[2,4,-1,-1,-1],"split_conditions":[-8.8342965E-1,-4.558933E-1,2.3465075E-2,-4.0553655E-2,5.3743995E-3],"split_indices":[5,20,0,0,0],"split_type":[0,0,0,0,0],"sum_hessian":[4.483691E0,2.8654444E0,1.6182469E0,1.0058402E0,1.8596044E0],"tree_param":{"num_deleted":"0","num_feature":"22","num_nodes":"5","size_leaf_vector":"1"}},{"base_weights":[-9.704297E-3,1.2970203E-1,-2.9379848E-2,-1.1472832E-1,4.398131E-2,-2.5503939E-2,9.345053E-3],"categories":[],"categories_nodes":[],"categories_segments":[],"categories_sizes":[],"default_left":[0,0,0,0,0,0,0],"id":76,"left_children":[1,3,-1,5,-1,-1,-1],"loss_changes":[2.537791E-1,3.7995017E-1,0E0,1.1800423E-1,0E0,0E0,0E0],"parents":[2147483647,0,0,1,1,3,3],"right_children":[2,4,-1,6,-1,-1,-1],"split_conditions":[2.857858E-1,-4.4082853E-1,-2.9379848E-2,-4.2932057E-1,4.398131E-2,-2.5503939E-2,9.345053E-3],"split_indices":[0,0,0,20,0,0,0],"split_type":[0,0,0,0,0,0,0],"sum_hessian":[4.4456615E0,3.3468173E0,1.0988445E0,2.2239416E0,1.1228756E0,1.1940577E0,1.029884E0],"tree_param":{"num_deleted":"0","num_feature":"22","num_nodes":"7","size_leaf_vector":"1"}},{"base_weights":[-9.025671E-3,-1.8689921E-1,2.107818E-2,9.069326E-3,-3.755954E-2],"categories":[],"categories_nodes":[],"categories_segments":[],"categories_sizes":[],"default_left":[0,0,0,0,0],"id":77,"left_children":[1,3,-1,-1,-1],"loss_changes":[2.4996033E-1,2.1775065E-1,0E0,0E0,0E0],"parents":[2147483647,0,0,1,1],"right_children":[2,4,-1,-1,-1],"split_conditions":[-5.061761E-1,-8.181818E-1,2.107818E-2,9.069326E-3,-3.755954E-2],"split_indices":[21,4,0,0,0],"split_type":[0,0,0,0,0],"sum_hessian":[4.385588E0,2.506766E0,1.8788221E0,1.2246065E0,1.2821597E0],"tree_param":{"num_deleted":"0","num_feature":"22","num_nodes":"5","size_leaf_vector":"1"}},{"base_weights":[-9.609467E-3,-2.502485E-2,1.5510409E-1,-6.5595987E-3,3.4419004E-2],"categories":[],"categories_nodes":[],"categories_segments":[],"categories_sizes":[],"default_left":[0,0,0,0,0],"id":78,"left_children":[1,-1,3,-1,-1],"loss_changes":[2.5089046E-1,0E0,1.8089408E-1,0E0,0E0],"parents":[2147483647,0,0,2,2],"right_children":[2,-1,4,-1,-1],"split_conditions":[-2.2363068E-1,-2.502485E-2,-2.859652E-1,-6.5595987E-3,3.4419004E-2],"split_indices":[19,0,20,0,0],"split_type":[0,0,0,0,0],"sum_hessian":[4.350518E0,1.5568037E0,2.7937145E0,1.590445E0,1.2032696E0],"tree_param":{"num_deleted":"0","num_feature":"22","num_nodes":"5","size_leaf_vector":"1"}},{"base_weights":[-8.119633E-3,-2.2820774E-2,1.6426748E-1,-1.4393336E-2,3.9151337E-2],"categories":[],"categories_nodes":[],"categories_segments":[],"categories_sizes":[],"default_left":[0,0,0,0,0],"id":79,"left_children":[1,-1,3,-1,-1],"loss_changes":[2.3912671E-1,0E0,3.058074E-1,0E0,0E0],"parents":[2147483647,0,0,2,2],"right_children":[2,-1,4,-1,-1],"split_conditions":[-1.2473805E-1,-2.2820774E-2,-9.731356E-1,-1.4393336E-2,3.9151337E-2],"split_indices":[17,0,14,0,0],"split_type":[0,0,0,0,0],"sum_hessian":[4.314647E0,1.7528977E0,2.5617495E0,1.2428119E0,1.3189374E0],"tree_param":{"num_deleted":"0","num_feature":"22","num_nodes":"5","size_leaf_vector":"1"}},{"base_weights":[-6.904654E-3,1.2717476E-1,-2.8004993E-2,-1.0573104E-1,4.234827E-2,-2.3837952E-2,9.034221E-3],"categories":[],"categories_nodes":[],"categories_segments":[],"categories_sizes":[],"default_left":[0,0,0,0,0,0,0],"id":80,"left_children":[1,3,-1,5,-1,-1,-1],"loss_changes":[2.2868347E-1,3.362621E-1,0E0,1.0385578E-1,0E0,0E0,0E0],"parents":[2147483647,0,0,1,1,3,3],"right_children":[2,4,-1,6,-1,-1,-1],"split_conditions":[2.857858E-1,-4.4082853E-1,-2.8004993E-2,-4.2932057E-1,4.234827E-2,-2.3837952E-2,9.034221E-3],"split_indices":[0,0,0,20,0,0,0],"split_type":[0,0,0,0,0,0,0],"sum_hessian":[4.2717514E0,3.223722E0,1.0480294E0,2.1650822E0,1.0586399E0,1.1627111E0,1.0023711E0],"tree_param":{"num_deleted":"0","num_feature":"22","num_nodes":"7","size_leaf_vector":"1"}},{"base_weights":[-6.2801046E-3,-1.8019176E-1,2.0646978E-2,9.019391E-3,-3.6158904E-2],"categories":[],"categories_nodes":[],"categories_segments":[],"categories_sizes":[],"default_left":[0,0,0,0,0],"id":81,"left_children":[1,3,-1,-1,-1],"loss_changes":[2.3026079E-1,1.996153E-1,0E0,0E0,0E0],"parents":[2147483647,0,0,1,1],"right_children":[2,4,-1,-1,-1],"split_conditions":[-5.061761E-1,-8.181818E-1,2.0646978E-2,9.019391E-3,-3.6158904E-2],"split_indices":[21,4,0,0,0],"split_type":[0,0,0,0,0],"sum_hessian":[4.217791E0,2.4049268E0,1.8128643E0,1.1674865E0,1.2374401E0],"tree_param":{"num_deleted":"0","num_feature":"22","num_nodes":"5","size_leaf_vector":"1"}},{"base_weights":[-6.9834604E-3,-2.3653585E-2,1.4985602E-1,-8.13002E-3,3.201943E-2],"categories":[],"categories_nodes":[],"categories_segments":[],"categories_sizes":[],"default_left":[0,0,0,0,0],"id":82,"left_children":[1,-1,3,-1,-1],"loss_changes":[2.2213383E-1,0E0,1.7143261E-1,0E0,0E0],"parents":[2147483647,0,0,2,2],"right_children":[2,-1,4,-1,-1],"split_conditions":[-2.2363068E-1,-2.3653585E-2,-5.061761E-1,-8.13002E-3,3.201943E-2],"split_indices":[19,0,21,0,0],"split_type":[0,0,0,0,0],"sum_hessian":[4.18535E0,1.4926083E0,2.6927416E0,1.3641905E0,1.328551E0],"tree_param":{"num_deleted":"0","num_feature":"22","num_nodes":"5","size_leaf_vector":"1"}},{"base_weights":[-6.235384E-3,-1.5955679E-1,2.2251492E-2,8.888067E-3,-3.558617E-2],"categories":[],"categories_nodes":[],"categories_segments":[],"categories_sizes":[],"default_left":[0,0,0,0,0],"id":83,"left_children":[1,3,-1,-1,-1],"loss_changes":[2.1629855E-1,2.1054941E-1,0E0,0E0,0E0],"parents":[2147483647,0,0,1,1],"right_children":[2,4,-1,-1,-1],"split_conditions":[-8.8342965E-1,-9.0246516E-1,2.2251492E-2,8.888067E-3,-3.558617E-2],"split_indices":[5,6,0,0,0],"split_type":[0,0,0,0,0],"sum_hessian":[4.1549144E0,2.6686912E0,1.4862232E0,1.4194766E0,1.2492145E0],"tree_param":{"num_deleted":"0","num_feature":"22","num_nodes":"5","size_leaf_vector":"1"}},{"base_weights":[-6.540986E-3,1.2891427E-1,-2.6899902E-2,-1.8306112E-2,3.3627138E-2],"categories":[],"categories_nodes":[],"categories_segments":[],"categories_sizes":[],"default_left":[0,0,0,0,0],"id":84,"left_children":[1,3,-1,-1,-1],"loss_changes":[2.1690351E-1,3.2399842E-1,0E0,0E0,0E0],"parents":[2147483647,0,0,1,1],"right_children":[2,4,-1,-1,-1],"split_conditions":[2.813497E-1,-6.630301E-1,-2.6899902E-2,-1.8306112E-2,3.3627138E-2],"split_indices":[0,0,0,0,0],"split_type":[0,0,0,0,0],"sum_hessian":[4.125709E0,3.05687E0,1.0688388E0,1.2673186E0,1.7895515E0],"tree_param":{"num_deleted":"0","num_feature":"22","num_nodes":"5","size_leaf_vector":"1"}},{"base_weights":[-8.164606E-3,-2.1557204E-2,1.5519339E-1,-1.38501E-2,3.730578E-2],"categories":[],"categories_nodes":[],"categories_segments":[],"categories_sizes":[],"default_left":[0,0,0,0,0],"id":85,"left_children":[1,-1,3,-1,-1],"loss_changes":[2.0556316E-1,0E0,2.7069214E-1,0E0,0E0],"parents":[2147483647,0,0,2,2],"right_children":[2,-1,4,-1,-1],"split_conditions":[-1.2473805E-1,-2.1557204E-2,-9.731356E-1,-1.38501E-2,3.730578E-2],"split_indices":[17,0,14,0,0],"split_type":[0,0,0,0,0],"sum_hessian":[4.0796733E0,1.6566626E0,2.4230108E0,1.1870604E0,1.2359504E0],"tree_param":{"num_deleted":"0","num_feature":"22","num_nodes":"5","size_leaf_vector":"1"}},{"base_weights":[-6.9446308E-3,-1.7080764E-1,1.9453561E-2,9.364392E-3,-3.5019055E-2],"categories":[],"categories_nodes":[],"categories_segments":[],"categories_sizes":[],"default_left":[0,0,0,0,0],"id":86,"left_children":[1,3,-1,-1,-1],"loss_changes":[1.996803E-1,1.8994965E-1,0E0,0E0,0E0],"parents":[2147483647,0,0,1,1],"right_children":[2,4,-1,-1,-1],"split_conditions":[-5.061761E-1,-8.181818E-1,1.9453561E-2,9.364392E-3,-3.5019055E-2],"split_indices":[21,4,0,0,0],"split_type":[0,0,0,0,0],"sum_hessian":[4.041688E0,2.3128738E0,1.7288142E0,1.1279634E0,1.1849104E0],"tree_param":{"num_deleted":"0","num_feature":"22","num_nodes":"5","size_leaf_vector":"1"}},{"base_weights":[-7.56698E-3,-2.2516448E-2,1.4201355E-1,-6.7695673E-3,3.2347497E-2],"categories":[],"categories_nodes":[],"categories_segments":[],"categories_sizes":[],"default_left":[0,0,0,0,0],"id":87,"left_children":[1,-1,3,-1,-1],"loss_changes":[1.9511117E-1,0E0,1.582645E-1,0E0,0E0],"parents":[2147483647,0,0,2,2],"right_children":[2,-1,4,-1,-1],"split_conditions":[-2.2363068E-1,-2.2516448E-2,-8.101391E-1,-6.7695673E-3,3.2347497E-2],"split_indices":[19,0,1,0,0],"split_type":[0,0,0,0,0],"sum_hessian":[4.012075E0,1.4285831E0,2.5834918E0,1.4892983E0,1.0941935E0],"tree_param":{"num_deleted":"0","num_feature":"22","num_nodes":"5","size_leaf_vector":"1"}},{"base_weights":[-6.1906693E-3,1.2444468E-1,-2.58119E-2,-1.6937014E-2,3.2062247E-2],"categories":[],"categories_nodes":[],"categories_segments":[],"categories_sizes":[],"default_left":[0,0,0,0,0],"id":88,"left_children":[1,3,-1,-1,-1],"loss_changes":[1.9610743E-1,2.823263E-1,0E0,0E0,0E0],"parents":[2147483647,0,0,1,1],"right_children":[2,4,-1,-1,-1],"split_conditions":[2.813497E-1,-6.630301E-1,-2.58119E-2,-1.6937014E-2,3.2062247E-2],"split_indices":[0,0,0,0,0],"split_type":[0,0,0,0,0],"sum_hessian":[3.982746E0,2.9559789E0,1.0267671E0,1.2381923E0,1.7177866E0],"tree_param":{"num_deleted":"0","num_feature":"22","num_nodes":"5","size_leaf_vector":"1"}},{"base_weights":[-7.7325804E-3,-1.535233E-1,2.1022744E-2,-3.4045517E-2,9.2575E-3],"categories":[],"categories_nodes":[],"categories_segments":[],"categories_sizes":[],"default_left":[0,0,0,0,0],"id":89,"left_children":[1,3,-1,-1,-1],"loss_changes":[1.8929568E-1,1.9431722E-1,0E0,0E0,0E0],"parents":[2147483647,0,0,1,1],"right_children":[2,4,-1,-1,-1],"split_conditions":[-8.8342965E-1,3.9624482E-1,2.1022744E-2,-3.4045517E-2,9.2575E-3],"split_indices":[5,15,0,0,0],"split_type":[0,0,0,0,0],"sum_hessian":[3.9414074E0,2.5388427E0,1.4025645E0,1.2249677E0,1.3138751E0],"tree_param":{"num_deleted":"0","num_feature":"22","num_nodes":"5","size_leaf_vector":"1"}},{"base_weights":[-7.7987737E-3,-1.6718529E-1,1.8728957E-2,9.023498E-3,-3.3952665E-2],"categories":[],"categories_nodes":[],"categories_segments":[],"categories_sizes":[],"default_left":[0,0,0,0,0],"id":90,"left_children":[1,3,-1,-1,-1],"loss_changes":[1.8409558E-1,1.7404708E-1,0E0,0E0,0E0],"parents":[2147483647,0,0,1,1],"right_children":[2,4,-1,-1,-1],"split_conditions":[-5.061761E-1,-8.181818E-1,1.8728957E-2,9.023498E-3,-3.3952665E-2],"split_indices":[21,4,0,0,0],"split_type":[0,0,0,0,0],"sum_hessian":[3.91353E0,2.2325623E0,1.6809679E0,1.0863446E0,1.1462177E0],"tree_param":{"num_deleted":"0","num_feature":"22","num_nodes":"5","size_leaf_vector":"1"}},{"base_weights":[-8.367699E-3,1.2104438E-1,-2.5280038E-2,-1.6284602E-2,3.1175215E-2],"categories":[],"categories_nodes":[],"categories_segments":[],"categories_sizes":[],"default_left":[0,0,0,0,0],"id":91,"left_children":[1,3,-1,-1,-1],"loss_changes":[1.8516032E-1,2.603401E-1,0E0,0E0,0E0],"parents":[2147483647,0,0,1,1],"right_children":[2,4,-1,-1,-1],"split_conditions":[2.813497E-1,-6.630301E-1,-2.5280038E-2,-1.6284602E-2,3.1175215E-2],"split_indices":[0,0,0,0,0],"split_type":[0,0,0,0,0],"sum_hessian":[3.8861156E0,2.8709292E0,1.0151861E0,1.2123313E0,1.6585981E0],"tree_param":{"num_deleted":"0","num_feature":"22","num_nodes":"5","size_leaf_vector":"1"}},{"base_weights":[-9.691052E-3,-2.3558654E-2,1.2452409E-1,-1.1659661E-2,2.9777506E-2],"categories":[],"categories_nodes":[],"categories_segments":[],"categories_sizes":[],"default_left":[0,0,0,0,0],"id":92,"left_children":[1,-1,3,-1,-1],"loss_changes":[1.7630261E-1,0E0,1.890741E-1,0E0,0E0],"parents":[2147483647,0,0,2,2],"right_children":[2,-1,4,-1,-1],"split_conditions":[-2.1273595E-1,-2.3558654E-2,-9.731356E-1,-1.1659661E-2,2.9777506E-2],"split_indices":[17,0,14,0,0],"split_type":[0,0,0,0,0],"sum_hessian":[3.8474016E0,1.1524463E0,2.6949553E0,1.2634985E0,1.4314568E0],"tree_param":{"num_deleted":"0","num_feature":"22","num_nodes":"5","size_leaf_vector":"1"}},{"base_weights":[-9.864429E-3,-1.6591655E-1,1.8041657E-2,8.832117E-3,-3.3756785E-2],"categories":[],"categories_nodes":[],"categories_segments":[],"categories_sizes":[],"default_left":[0,0,0,0,0],"id":93,"left_children":[1,3,-1,-1,-1],"loss_changes":[1.7298484E-1,1.680564E-1,0E0,0E0,0E0],"parents":[2147483647,0,0,1,1],"right_children":[2,4,-1,-1,-1],"split_conditions":[-5.061761E-1,-8.459168E-1,1.8041657E-2,8.832117E-3,-3.3756785E-2],"split_indices":[21,10,0,0,0],"split_type":[0,0,0,0,0],"sum_hessian":[3.8175364E0,2.1677659E0,1.6497705E0,1.069363E0,1.098403E0],"tree_param":{"num_deleted":"0","num_feature":"22","num_nodes":"5","size_leaf_vector":"1"}},{"base_weights":[-1.0414245E-2,-2.1762386E-2,1.3355272E-1,-8.245089E-3,2.9176598E-2],"categories":[],"categories_nodes":[],"categories_segments":[],"categories_sizes":[],"default_left":[0,0,0,0,0],"id":94,"left_children":[1,-1,3,-1,-1],"loss_changes":[1.7193945E-1,0E0,1.4181107E-1,0E0,0E0],"parents":[2147483647,0,0,2,2],"right_children":[2,-1,4,-1,-1],"split_conditions":[-2.2363068E-1,-2.1762386E-2,-5.061761E-1,-8.245089E-3,2.9176598E-2],"split_indices":[19,0,21,0,0],"split_type":[0,0,0,0,0],"sum_hessian":[3.789433E0,1.3437576E0,2.4456754E0,1.2364506E0,1.2092247E0],"tree_param":{"num_deleted":"0","num_feature":"22","num_nodes":"5","size_leaf_vector":"1"}},{"base_weights":[-9.564941E-3,-2.425736E-2,1.2009871E-1,-1.3774316E-2,2.6794484E-2],"categories":[],"categories_nodes":[],"categories_segments":[],"categories_sizes":[],"default_left":[0,0,0,0,0],"id":95,"left_children":[1,-1,3,-1,-1],"loss_changes":[1.730955E-1,0E0,1.7910746E-1,0E0,0E0],"parents":[2147483647,0,0,2,2],"right_children":[2,-1,4,-1,-1],"split_conditions":[-4.558933E-1,-2.425736E-2,-2.3442265E-1,-1.3774316E-2,2.6794484E-2],"split_indices":[20,0,19,0,0],"split_type":[0,0,0,0,0],"sum_hessian":[3.7649655E0,1.0347337E0,2.730232E0,1.0198902E0,1.7103418E0],"tree_param":{"num_deleted":"0","num_feature":"22","num_nodes":"5","size_leaf_vector":"1"}},{"base_weights":[-1.1006907E-2,-1.4890465E-1,1.9713847E-2,8.992173E-3,-3.3313897E-2],"categories":[],"categories_nodes":[],"categories_segments":[],"categories_sizes":[],"default_left":[0,0,0,0,0],"id":96,"left_children":[1,3,-1,-1,-1],"loss_changes":[1.6536172E-1,1.8043123E-1,0E0,0E0,0E0],"parents":[2147483647,0,0,1,1],"right_children":[2,4,-1,-1,-1],"split_conditions":[-8.8342965E-1,-9.0246516E-1,1.9713847E-2,8.992173E-3,-3.3313897E-2],"split_indices":[5,6,0,0,0],"split_type":[0,0,0,0,0],"sum_hessian":[3.7384572E0,2.4198813E0,1.3185759E0,1.2767383E0,1.1431432E0],"tree_param":{"num_deleted":"0","num_feature":"22","num_nodes":"5","size_leaf_vector":"1"}},{"base_weights":[-1.0965895E-2,-2.0065052E-2,1.4069895E-1,-1.293165E-2,3.4404304E-2],"categories":[],"categories_nodes":[],"categories_segments":[],"categories_sizes":[],"default_left":[0,0,0,0,0],"id":97,"left_children":[1,-1,3,-1,-1],"loss_changes":[1.6385807E-1,0E0,2.2060561E-1,0E0,0E0],"parents":[2147483647,0,0,2,2],"right_children":[2,-1,4,-1,-1],"split_conditions":[-1.2473805E-1,-2.0065052E-2,-9.731356E-1,-1.293165E-2,3.4404304E-2],"split_indices":[17,0,14,0,0],"split_type":[0,0,0,0,0],"sum_hessian":[3.71442E0,1.5068464E0,2.2075737E0,1.1047093E0,1.1028643E0],"tree_param":{"num_deleted":"0","num_feature":"22","num_nodes":"5","size_leaf_vector":"1"}},{"base_weights":[-9.569555E-3,-1.5528202E-1,1.6960628E-2,9.938077E-3,-3.29704E-2],"categories":[],"categories_nodes":[],"categories_segments":[],"categories_sizes":[],"default_left":[0,0,0,0,0],"id":98,"left_children":[1,3,-1,-1,-1],"loss_changes":[1.4860564E-1,1.7067818E-1,0E0,0E0,0E0],"parents":[2147483647,0,0,1,1],"right_children":[2,4,-1,-1,-1],"split_conditions":[-5.061761E-1,-8.181818E-1,1.6960628E-2,9.938077E-3,-3.29704E-2],"split_indices":[21,4,0,0,0],"split_type":[0,0,0,0,0],"sum_hessian":[3.6831672E0,2.1048107E0,1.5783564E0,1.0304874E0,1.0743233E0],"tree_param":{"num_deleted":"0","num_feature":"22","num_nodes":"5","size_leaf_vector":"1"}},{"base_weights":[-1.0002603E-2,-1.9178946E-2,1.361294E-1,-1.2431542E-2,3.3335324E-2],"categories":[],"categories_nodes":[],"categories_segments":[],"categories_sizes":[],"default_left":[0,0,0,0,0],"id":99,"left_children":[1,-1,3,-1,-1],"loss_changes":[1.4986399E-1,0E0,2.041399E-1,0E0,0E0],"parents":[2147483647,0,0,2,2],"right_children":[2,-1,4,-1,-1],"split_conditions":[-1.2473805E-1,-1.9178946E-2,-9.731356E-1,-1.2431542E-2,3.3335324E-2],"split_indices":[17,0,14,0,0],"split_type":[0,0,0,0,0],"sum_hessian":[3.6586254E0,1.4911762E0,2.1674492E0,1.0933261E0,1.074123E0],"tree_param":{"num_deleted":"0","num_feature":"22","num_nodes":"5","size_leaf_vector":"1"}}]},"name":"gbtree"},"learner_model_param":{"base_score":"[7.3717946E-1]","boost_from_average":"1","num_class":"0","num_feature":"22","num_target":"1"},"objective":{"name":"binary:logistic","reg_loss_param":{"scale_pos_weight":"1"}}},"version":[3,1,2]}